{"learner":{"attributes":{"best_iteration":"399","best_ntree_limit":"400","scikit_learn":"{\"use_label_encoder\": null, \"n_estimators\": 400, \"objective\": \"binary:logistic\", \"max_depth\": 6, \"max_leaves\": null, \"max_bin\": null, \"grow_policy\": null, \"learning_rate\": 0.1, \"verbosity\": null, \"booster\": null, \"tree_method\": \"hist\", \"gamma\": null, \"min_child_weight\": null, \"max_delta_step\": null, \"subsample\": 0.8, \"sampling_method\": null, \"colsample_bytree\": 0.8, \"colsample_bylevel\": null, \"colsample_bynode\": null, \"reg_alpha\": null, \"reg_lambda\": null, \"scale_pos_weight\": null, \"base_score\": null, \"missing\": NaN, \"num_parallel_tree\": null, \"random_state\": 42, \"n_jobs\": -1, \"monotone_constraints\": null, \"interaction_constraints\": null, \"importance_type\": null, \"gpu_id\": null, \"validate_parameters\": null, \"predictor\": null, \"enable_categorical\": false, \"feature_types\": null, \"max_cat_to_onehot\": null, \"max_cat_threshold\": null, \"eval_metric\": \"logloss\", \"early_stopping_rounds\": null, \"callbacks\": null, \"classes_\": [0, 1], \"n_classes_\": 2, \"_estimator_type\": \"classifier\"}"},"feature_names":["sport","dport","pkts","bytes","dur","mean","stddev","sum","min","max","spkts","dpkts","sbytes","dbytes","rate","srate","drate"],"feature_types":["float","float","int","int","float","float","float","float","float","float","int","int","int","int","float","float","float"],"gradient_booster":{"model":{"gbtree_model_param":{"num_parallel_tree":"1","num_trees":"400","size_leaf_vector":"0"},"tree_info":[0,0,0,0,0,0,0,0,0,0,0,0,0,0,0,0,0,0,0,0,0,0,0,0,0,0,0,0,0,0,0,0,0,0,0,0,0,0,0,0,0,0,0,0,0,0,0,0,0,0,0,0,0,0,0,0,0,0,0,0,0,0,0,0,0,0,0,0,0,0,0,0,0,0,0,0,0,0,0,0,0,0,0,0,0,0,0,0,0,0,0,0,0,0,0,0,0,0,0,0,0,0,0,0,0,0,0,0,0,0,0,0,0,0,0,0,0,0,0,0,0,0,0,0,0,0,0,0,0,0,0,0,0,0,0,0,0,0,0,0,0,0,0,0,0,0,0,0,0,0,0,0,0,0,0,0,0,0,0,0,0,0,0,0,0,0,0,0,0,0,0,0,0,0,0,0,0,0,0,0,0,0,0,0,0,0,0,0,0,0,0,0,0,0,0,0,0,0,0,0,0,0,0,0,0,0,0,0,0,0,0,0,0,0,0,0,0,0,0,0,0,0,0,0,0,0,0,0,0,0,0,0,0,0,0,0,0,0,0,0,0,0,0,0,0,0,0,0,0,0,0,0,0,0,0,0,0,0,0,0,0,0,0,0,0,0,0,0,0,0,0,0,0,0,0,0,0,0,0,0,0,0,0,0,0,0,0,0,0,0,0,0,0,0,0,0,0,0,0,0,0,0,0,0,0,0,0,0,0,0,0,0,0,0,0,0,0,0,0,0,0,0,0,0,0,0,0,0,0,0,0,0,0,0,0,0,0,0,0,0,0,0,0,0,0,0,0,0,0,0,0,0,0,0,0,0,0,0,0,0,0,0,0,0,0,0,0,0,0,0,0,0,0,0,0,0,0,0,0,0,0,0,0,0,0,0,0,0,0,0,0,0,0,0,0,0,0,0,0,0],"trees":[{"base_weights":[1.4596927E0,-1.0171875E0,1.7741504E0,1.2890095E0,-1.9473972E0,1.9109097E0,-1.8266757E0,-1.969697E-1,1.9934103E-1,1.3170732E0,-1.9822862E0,1.922139E0,-2.1153846E-1,1.2727273E0,-1.9410939E0,-0E0,1.7419355E-1,-1.9955394E0,-1.3333334E-1,1.7964895E0,1.9809698E0,1.9E-1,-1.4848485E0,-1.20000005E-1,1.6734694E0,-1.9520789E0,1.818182E-2,1E-1,-8.0000006E-2,-1.9977672E-1,-0E0,1.2941177E-1,-1.5294118E-1,1.8404897E0,-1.2857144E-1,1.9880906E0,-4.5E-1,-1.8857144E-1,6.451613E-2,2.2222223E-2,1.8181819E-1,-1.4642857E0,-1.9877957E-1,1.573201E-1,1.9368444E-1,-1.6788322E-1,1.3197279E-1,1.9915764E-1,8.235294E-2,-1.84E-1,1.6470589E-1,6.666667E-2,-1.2727273E-1,2.857143E-2,-1.6470589E-1],"categories":[],"categories_nodes":[],"categories_segments":[],"categories_sizes":[],"default_left":[0,0,0,0,0,0,0,0,0,0,0,0,0,0,0,0,0,0,0,0,0,0,0,0,0,0,0,0,0,0,0,0,0,0,0,0,0,0,0,0,0,0,0,0,0,0,0,0,0,0,0,0,0,0,0],"id":0,"left_children":[1,3,5,7,9,11,13,-1,-1,15,17,19,21,23,25,27,-1,29,31,33,35,-1,37,-1,39,41,-1,-1,-1,-1,-1,-1,-1,43,45,47,49,-1,51,-1,-1,53,-1,-1,-1,-1,-1,-1,-1,-1,-1,-1,-1,-1,-1],"loss_changes":[8.847088E3,2.7484263E3,4.966121E3,8.497942E2,1.0653906E2,2.318164E2,1.3341699E2,0E0,0E0,5.7356415E0,2.1867676E1,6.783594E1,1.4263066E2,1.5633392E1,8.668579E0,3.6E0,0E0,3.9865723E0,1.692549E1,2.620332E2,1.1460156E2,0E0,2.0617538E1,0E0,2.1686249E0,3.2698975E0,0E0,0E0,0E0,0E0,0E0,0E0,0E0,7.477637E1,1.5938249E2,2.4945312E1,6.1328823E1,0E0,7.088954E0,0E0,0E0,9.426468E0,0E0,0E0,0E0,0E0,0E0,0E0,0E0,0E0,0E0,0E0,0E0,0E0,0E0],"parents":[2147483647,0,0,1,1,2,2,3,3,4,4,5,5,6,6,9,9,10,10,11,11,12,12,13,13,14,14,15,15,17,17,18,18,19,19,20,20,22,22,24,24,25,25,33,33,34,34,35,35,36,36,38,38,41,41],"right_children":[2,4,6,8,10,12,14,-1,-1,16,18,20,22,24,26,28,-1,30,32,34,36,-1,38,-1,40,42,-1,-1,-1,-1,-1,-1,-1,44,46,48,50,-1,52,-1,-1,54,-1,-1,-1,-1,-1,-1,-1,-1,-1,-1,-1,-1,-1],"split_conditions":[8E1,5.3E1,6.689E3,1.38E2,1.54E2,2.571972E2,1.014811E0,-1.969697E-1,1.9934103E-1,8E-6,1.383502E0,2.74E2,1.54E2,3.8023888E1,9.158E3,7E1,1.7419355E-1,1E1,3.08E2,1.496E-2,8.402E3,1.9E-1,8.537E-3,-1.20000005E-1,1.49088E-1,4.714126E0,1.818182E-2,1E-1,-8.0000006E-2,-1.9977672E-1,-0E0,1.2941177E-1,-1.5294118E-1,3.4045E4,1.58E2,1.7E1,9.158E3,-1.8857144E-1,1.4519314E3,2.2222223E-2,1.8181819E-1,3.327E-3,-1.9877957E-1,1.573201E-1,1.9368444E-1,-1.6788322E-1,1.3197279E-1,1.9915764E-1,8.235294E-2,-1.84E-1,1.6470589E-1,6.666667E-2,-1.2727273E-1,2.857143E-2,-1.6470589E-1],"split_indices":[1,1,3,0,3,4,4,0,0,4,15,3,3,14,1,3,0,2,3,4,1,0,15,0,8,9,0,0,0,0,0,0,0,0,1,2,1,0,4,0,0,8,0,0,0,0,0,0,0,0,0,0,0,0,0],"split_type":[0,0,0,0,0,0,0,0,0,0,0,0,0,0,0,0,0,0,0,0,0,0,0,0,0,0,0,0,0,0,0,0,0,0,0,0,0,0,0,0,0,0,0,0,0,0,0,0,0,0,0,0,0,0,0],"sum_hessian":[1.13555E4,1.279E3,1.00765E4,3.675E2,9.115E2,9.70825E3,3.6825E2,6.5E1,3.025E2,9.25E0,9.0225E2,9.65725E3,5.1E1,1.275E1,3.555E2,2.5E0,6.75E0,8.9575E2,6.5E0,3.08975E3,6.5675E3,1.9E1,3.2E1,1.5E0,1.125E1,3.5375E2,1.75E0,1E0,1.5E0,8.9475E2,1E0,3.25E0,3.25E0,3.02075E3,6.9E1,6.5485E3,1.9E1,2.525E1,6.75E0,1.25E0,1E1,2.7E1,3.2675E2,8.05E2,2.21575E3,3.325E1,3.575E1,6.52825E3,2.025E1,1.15E1,7.5E0,5E0,1.75E0,2.5E0,2.45E1],"tree_param":{"num_deleted":"0","num_feature":"17","num_nodes":"55","size_leaf_vector":"0"}},{"base_weights":[1.3324593E0,-9.164248E-1,1.6144902E0,1.1726304E0,-1.7712688E0,1.739644E0,-1.6114982E0,-1.793462E-1,1.8132463E-1,1.6270462E-1,-1.8006631E0,1.7490733E0,-7.863426E-2,1.327426E0,-1.7555727E0,-1.8138736E0,-5.9122708E-2,-1.8586712E-1,1.7515038E0,1.7381547E-1,-1.2710146E0,-1.1305224E-1,1.6162671E0,-2.757567E-1,-1.7756417E0,-4.0363528E-2,-1.8158112E-1,1.43517E-1,-1.4589687E-1,1.4885622E0,1.7743078E0,-1.7117202E-1,2.2836247E-1,3.8669582E-2,1.7125762E-1,7.980742E-2,-1.13386154E-1,-1.7831279E0,-1.0909335E-3,-1.1720216E-1,1.6476487E-1,1.779965E-1,6.689303E-2,7.1351185E-2,-1.126469E-1,-9.4220564E-2,-1.7961171E-1],"categories":[],"categories_nodes":[],"categories_segments":[],"categories_sizes":[],"default_left":[0,0,0,0,0,0,0,0,0,0,0,0,0,0,0,0,0,0,0,0,0,0,0,0,0,0,0,0,0,0,0,0,0,0,0,0,0,0,0,0,0,0,0,0,0,0,0],"id":1,"left_children":[1,3,5,7,9,11,13,-1,-1,-1,15,17,19,21,23,25,27,-1,29,-1,31,-1,33,35,37,-1,-1,-1,-1,39,41,-1,43,-1,-1,-1,-1,45,-1,-1,-1,-1,-1,-1,-1,-1,-1],"loss_changes":[7.1722363E3,2.2530845E3,4.0589492E3,6.998782E2,9.2319336E1,1.6595312E2,1.6141699E2,0E0,0E0,0E0,2.031543E1,8.763086E1,1.1237221E2,1.4696825E1,1.015979E1,1.6743164E0,1.823499E1,0E0,5.501758E1,0E0,2.1060318E1,0E0,1.3073769E0,6.4169626E0,4.6522217E0,0E0,0E0,0E0,0E0,3.293672E2,5.4103516E1,0E0,6.054118E0,0E0,0E0,0E0,0E0,2.1535645E0,0E0,0E0,0E0,0E0,0E0,0E0,0E0,0E0,0E0],"parents":[2147483647,0,0,1,1,2,2,3,3,4,4,5,5,6,6,10,10,11,11,12,12,13,13,14,14,15,15,16,16,18,18,20,20,22,22,23,23,24,24,29,29,30,30,32,32,37,37],"right_children":[2,4,6,8,10,12,14,-1,-1,-1,16,18,20,22,24,26,28,-1,30,-1,32,-1,34,36,38,-1,-1,-1,-1,40,42,-1,44,-1,-1,-1,-1,46,-1,-1,-1,-1,-1,-1,-1,-1,-1],"split_conditions":[8E1,5.3E1,6.689E3,1.38E2,6.4E1,2.571972E2,1.014811E0,-1.793462E-1,1.8132463E-1,1.6270462E-1,1.383502E0,6E1,1.54E2,3.8023888E1,4.15611E-1,1.54E2,3.163E3,-1.8586712E-1,1.9E-5,1.7381547E-1,8.537E-3,-1.1305224E-1,1.49088E-1,3.538E3,9.158E3,-4.0363528E-2,-1.8158112E-1,1.43517E-1,-1.4589687E-1,5.586E3,1.477E3,-1.7117202E-1,1.4519314E3,3.8669582E-2,1.7125762E-1,7.980742E-2,-1.13386154E-1,1.326954E0,-1.0909335E-3,-1.1720216E-1,1.6476487E-1,1.779965E-1,6.689303E-2,7.1351185E-2,-1.126469E-1,-9.4220564E-2,-1.7961171E-1],"split_indices":[1,1,3,0,12,4,4,0,0,0,15,12,3,14,14,3,0,0,4,0,15,0,8,13,1,0,0,0,0,0,12,0,4,0,0,0,0,7,0,0,0,0,0,0,0,0,0],"split_type":[0,0,0,0,0,0,0,0,0,0,0,0,0,0,0,0,0,0,0,0,0,0,0,0,0,0,0,0,0,0,0,0,0,0,0,0,0,0,0,0,0,0,0,0,0,0,0],"sum_hessian":[1.1304799E4,1.2594922E3,1.0045307E4,3.6562106E2,8.9387115E2,9.670592E3,3.7471487E2,6.462119E1,3.0099988E2,7.1992927E0,8.866719E2,9.620739E3,4.985298E1,1.7127306E1,3.5758755E2,8.799554E2,6.7164555E0,5.963028E0,9.614775E3,1.9572823E1,3.0280157E1,1.4946129E0,1.5632692E1,4.981876E0,3.5260568E2,1.4946278E0,8.784608E2,3.2364306E0,3.4800246E0,7.725996E2,8.842176E3,2.329232E1,6.9878354E0,1.4998149E0,1.4132877E1,2.2438648E0,2.7380114E0,3.511058E2,1.499876E0,4.323103E1,7.293686E2,8.796548E3,4.5628616E1,5.4938936E0,1.493942E0,6.459389E0,3.4464642E2],"tree_param":{"num_deleted":"0","num_feature":"17","num_nodes":"47","size_leaf_vector":"0"}},{"base_weights":[1.2328849E0,-8.5407716E-1,1.4935813E0,1.087154E0,-1.6409124E0,1.608548E0,-1.4404695E0,-1.6596295E-1,1.6776285E-1,1.4889753E-1,-1.6655478E0,1.3472074E-1,1.615687E0,1.0197023E0,-1.6003788E0,-1.6760807E0,-5.330521E-2,-8.98932E-1,1.6197374E-1,1.4942973E0,1.6715573E0,-1.127402E0,1.5505474E0,-2.6333356E-1,-1.6597573E-1,-1.6782284E0,-1.0063714E-2,1.0951301E-1,-1.2696165E-1,1.4186013E-1,-1.5022255E0,1.5709959E0,-8.802201E-1,1.6782968E0,-7.7943426E-1,-2.5983423E-2,-1.3323806E-1,1.5930311E-1,5.1158477E-2,1.1622227E0,-1.4267789E-1,-4.380728E-2,-1.6809659E-1,1.2855075E-1,-1.8318024E-1,-1.6132776E-1,1.5765561E-1,-1.7598544E-1,1.2133657E-1,-1.9615701E-1,1.6813855E-1,-1.79897E-1,1.300476E-1,-1.6489252E-2,1.5779045E-1],"categories":[],"categories_nodes":[],"categories_segments":[],"categories_sizes":[],"default_left":[0,0,0,0,0,0,0,0,0,0,0,0,0,0,0,0,0,0,0,0,0,0,0,0,0,0,0,0,0,0,0,0,0,0,0,0,0,0,0,0,0,0,0,0,0,0,0,0,0,0,0,0,0,0,0],"id":2,"left_children":[1,3,5,7,9,11,13,-1,-1,-1,15,17,19,21,23,25,27,29,-1,31,33,35,37,39,-1,41,-1,-1,-1,-1,43,45,47,49,51,-1,-1,-1,-1,53,-1,-1,-1,-1,-1,-1,-1,-1,-1,-1,-1,-1,-1,-1,-1],"loss_changes":[5.9908906E3,1.8700405E3,3.3036172E3,5.7593604E2,6.962085E1,9.887695E1,1.4701611E2,0E0,0E0,0E0,1.45896E1,7.281991E1,6.1070312E1,2.8151665E1,2.71427E1,2.7370605E0,1.0670382E1,4.1355648E1,0E0,5.411299E2,1.0719531E2,5.7338667E-1,2.3426056E-2,2.8129112E1,0E0,2.1750488E0,0E0,0E0,0E0,0E0,2.325285E1,5.3379395E1,1.740913E2,7.516797E1,4.1061996E1,0E0,0E0,0E0,0E0,4.52079E0,0E0,0E0,0E0,0E0,0E0,0E0,0E0,0E0,0E0,0E0,0E0,0E0,0E0,0E0,0E0],"parents":[2147483647,0,0,1,1,2,2,3,3,4,4,5,5,6,6,10,10,11,11,12,12,13,13,14,14,15,15,16,16,17,17,19,19,20,20,21,21,22,22,23,23,25,25,30,30,31,31,32,32,33,33,34,34,39,39],"right_children":[2,4,6,8,10,12,14,-1,-1,-1,16,18,20,22,24,26,28,30,-1,32,34,36,38,40,-1,42,-1,-1,-1,-1,44,46,48,50,52,-1,-1,-1,-1,54,-1,-1,-1,-1,-1,-1,-1,-1,-1,-1,-1,-1,-1,-1,-1],"split_conditions":[8E1,5.3E1,5.406E3,1.38E2,6.4E1,3.65E2,1.4E-5,-1.6596295E-1,1.6776285E-1,1.4889753E-1,1.383502E0,1.1E-4,3.8769E-2,2.0995623E1,4.74E-4,9E0,3.08E2,1.23E2,1.6197374E-1,1.72E2,8.402E3,8.34358E-1,5.6147E4,4.774734E0,-1.6597573E-1,1.54E2,-1.0063714E-2,1.0951301E-1,-1.2696165E-1,1.4186013E-1,1.36E2,6E1,6.16E2,1.54E2,9.158E3,-2.5983423E-2,-1.3323806E-1,1.5930311E-1,5.1158477E-2,3.4045E4,-1.4267789E-1,-4.380728E-2,-1.6809659E-1,1.2855075E-1,-1.8318024E-1,-1.6132776E-1,1.5765561E-1,-1.7598544E-1,1.2133657E-1,-1.9615701E-1,1.6813855E-1,-1.79897E-1,1.300476E-1,-1.6489252E-2,1.5779045E-1],"split_indices":[1,1,3,0,12,0,6,0,0,0,15,6,15,15,8,2,3,1,0,3,1,5,0,9,0,3,0,0,0,0,12,12,3,3,1,0,0,0,0,0,0,0,0,0,0,0,0,0,0,0,0,0,0,0,0],"split_type":[0,0,0,0,0,0,0,0,0,0,0,0,0,0,0,0,0,0,0,0,0,0,0,0,0,0,0,0,0,0,0,0,0,0,0,0,0,0,0,0,0,0,0,0,0,0,0,0,0,0,0,0,0,0,0],"sum_hessian":[1.1008035E4,1.222138E3,9.785897E3,3.5238177E2,8.6975616E2,9.417344E3,3.68554E2,6.2027954E1,2.9035382E2,6.328228E0,8.63428E2,4.5491383E1,9.371853E3,2.2165506E1,3.4638846E2,8.577845E2,5.643487E0,2.705458E1,1.8436802E1,2.962648E3,6.4092046E3,4.1710625E0,1.7994444E1,1.4960186E1,3.3142828E2,8.565516E2,1.2329284E0,2.9539816E0,2.6895056E0,5.3089576E0,2.1745623E1,2.8702742E3,9.237364E1,6.391944E3,1.726065E1,1.2305217E0,2.9405408E0,1.6775206E1,1.2192391E0,6.7232795E0,8.236906E0,2.241232E0,8.543103E2,1.9923983E0,1.9753225E1,4.499083E0,2.8657751E3,6.515692E1,2.7216713E1,4.8817964E0,6.387062E3,1.16735525E1,5.587098E0,1.7474979E0,4.975782E0],"tree_param":{"num_deleted":"0","num_feature":"17","num_nodes":"55","size_leaf_vector":"0"}},{"base_weights":[1.1457382E0,1.2432778E0,-1.5110139E0,7.8816956E-1,1.539581E0,4.671883E-1,-1.5523131E0,1.4490396E0,-1.1825432E0,-1.3274394E0,1.5537168E0,-1.05475806E-1,1.5678558E-1,4.4134557E-2,-1.5628808E0,-1.1629574E0,1.4624367E0,1.3519152E0,-1.4477437E0,1.1599659E-1,-1.6096902E-1,1.5644966E0,1.515099E-2,-4.9266785E-1,-1.570542E-1,-1.472239E-1,1.1037258E-1,1.5193576E0,9.0539354E-1,1.5714502E-1,-1.3733236E-1,8.609872E-1,-1.5047024E0,1.566793E0,-6.060898E-1,-1.6989778E-1,1.158894E0,-1.0437349E-1,4.5681994E-2,-1.5325159E-1,1.525757E-1,-1.78561E-1,1.4127298E-1,-1.5229192E-1,1.5150441E-1,7.6038115E-2,-1.5655465E-1,1.5712029E-1,8.4519625E-2,-1.3534766E-1,1.1224492E-1,5.4398067E-2,1.3838942E-1],"categories":[],"categories_nodes":[],"categories_segments":[],"categories_sizes":[],"default_left":[0,0,0,0,0,0,0,0,0,0,0,0,0,0,0,0,0,0,0,0,0,0,0,0,0,0,0,0,0,0,0,0,0,0,0,0,0,0,0,0,0,0,0,0,0,0,0,0,0,0,0,0,0],"id":3,"left_children":[1,3,5,7,9,11,13,15,17,19,21,-1,-1,-1,23,25,27,29,31,-1,-1,33,35,37,-1,-1,-1,39,41,-1,-1,43,45,47,49,-1,51,-1,-1,-1,-1,-1,-1,-1,-1,-1,-1,-1,-1,-1,-1,-1,-1],"loss_changes":[2.7484307E3,1.3774951E3,3.142688E1,5.2551035E3,2.529834E2,1.5815017E1,8.450073E0,1.0741992E2,6.8318896E2,2.3572388E1,1.02166016E2,0E0,0E0,0E0,2.2322998E0,1.2823093E1,9.3941895E1,5.9907303E1,1.22015015E2,0E0,0E0,3.1448242E1,8.799428E1,2.602622E0,0E0,0E0,0E0,5.557666E1,3.8639935E2,0E0,0E0,3.776187E1,1.2471057E2,1.8121094E1,1.0804401E1,0E0,2.9707031E0,0E0,0E0,0E0,0E0,0E0,0E0,0E0,0E0,0E0,0E0,0E0,0E0,0E0,0E0,0E0,0E0],"parents":[2147483647,0,0,1,1,2,2,3,3,4,4,5,5,6,6,7,7,8,8,9,9,10,10,14,14,15,15,16,16,17,17,18,18,21,21,22,22,23,23,27,27,28,28,31,31,32,32,33,33,34,34,36,36],"right_children":[2,4,6,8,10,12,14,16,18,20,22,-1,-1,-1,24,26,28,30,32,-1,-1,34,36,38,-1,-1,-1,40,42,-1,-1,44,46,48,50,-1,52,-1,-1,-1,-1,-1,-1,-1,-1,-1,-1,-1,-1,-1,-1,-1,-1],"split_conditions":[5.818E3,2.14E2,2.208819E0,5.983E-3,8.537E-3,9.449E3,4.15611E-1,1.38E2,3.163E3,2.4E2,3.67E3,-1.05475806E-1,1.5678558E-1,4.4134557E-2,1.006275E0,2E0,7.6E1,1.87E2,6.4E1,1.1599659E-1,-1.6096902E-1,9.979161E0,1.957807E0,2.7E1,-1.570542E-1,-1.472239E-1,1.1037258E-1,6E1,1.09E2,1.5714502E-1,-1.3733236E-1,3.4045E4,3.849E-3,1.979E3,4.68E2,-1.6989778E-1,1.701E3,-1.0437349E-1,4.5681994E-2,-1.5325159E-1,1.525757E-1,-1.78561E-1,1.4127298E-1,-1.5229192E-1,1.5150441E-1,7.6038115E-2,-1.5655465E-1,1.5712029E-1,8.4519625E-2,-1.3534766E-1,1.1224492E-1,5.4398067E-2,1.3838942E-1],"split_indices":[12,12,7,4,15,12,14,0,0,12,13,0,0,0,5,2,12,13,12,0,0,7,16,2,0,0,0,12,12,0,0,0,14,12,13,0,12,0,0,0,0,0,0,0,0,0,0,0,0,0,0,0,0],"split_type":[0,0,0,0,0,0,0,0,0,0,0,0,0,0,0,0,0,0,0,0,0,0,0,0,0,0,0,0,0,0,0,0,0,0,0,0,0,0,0,0,0,0,0,0,0,0,0,0,0,0,0,0,0],"sum_hessian":[1.0597799E4,1.0223006E4,3.7479358E2,4.032669E3,6.190337E3,7.4537225E0,3.6733984E2,3.020142E3,1.0125269E3,2.9915941E1,6.160421E3,3.1457086E0,4.3080134E0,1.7219375E0,3.6561792E2,1.497354E1,3.0051685E3,9.552449E1,9.1700244E2,2.7317758E0,2.7184166E1,6.117542E3,4.287878E1,3.062874E0,3.6255502E2,1.34841585E1,1.4893819E0,2.7249902E3,2.8017825E2,8.8794876E1,6.72961E0,2.1738804E1,8.952636E2,6.1113545E3,6.187309E0,1.6966146E1,2.5912636E1,1.8752494E0,1.1876247E0,5.202964E0,2.7197874E3,4.4043564E1,2.3613469E2,4.394244E0,1.7344559E1,2.3118513E1,8.7214514E2,6.073063E3,3.829191E1,4.4710817E0,1.716227E0,7.8571563E0,1.805548E1],"tree_param":{"num_deleted":"0","num_feature":"17","num_nodes":"53","size_leaf_vector":"0"}},{"base_weights":[1.0817553E0,-7.6086265E-1,1.3143575E0,9.451704E-1,-1.4536312E0,1.4125843E0,-1.3892484E0,-1.4734511E-1,1.4905666E-1,1.3121335E-1,-1.4755453E0,1.4220208E0,-2.3785198E-1,6.670047E-1,-1.4351019E0,-1.4885861E0,5.8697198E-2,1.4296294E0,3.4983844E-1,8.935169E-1,-1.1366237E0,1.1452572E0,-6.58107E-2,7.370407E-1,-1.4563752E0,-1.490626E-1,-5.3108585E-1,1.2111469E-1,-1.0481218E-1,1.318916E0,1.4876735E0,-6.9264454E-1,1.4092622E0,-1.2193179E-1,1.4678839E-1,-1.466044E-1,-2.3035933E-1,-3.7178353E-3,1.4494292E-1,1.00461386E-1,1.0958856E-2,-2.3594259E-1,-1.4717255E0,-4.536325E-3,-7.7605836E-2,1.4212218E-1,8.483226E-2,-8.546845E-2,1.4893088E-1,1.4607362E-1,-1.5904634E-1,1.4991897E-1,-4.655878E-2,4.7666248E-2,-1.4362949E-1,-1.17207125E-1,1.0656106E-1,-1.4804386E-1,3.7052616E-2],"categories":[],"categories_nodes":[],"categories_segments":[],"categories_sizes":[],"default_left":[0,0,0,0,0,0,0,0,0,0,0,0,0,0,0,0,0,0,0,0,0,0,0,0,0,0,0,0,0,0,0,0,0,0,0,0,0,0,0,0,0,0,0,0,0,0,0,0,0,0,0,0,0,0,0,0,0,0,0],"id":4,"left_children":[1,3,5,7,9,11,13,-1,-1,-1,15,17,19,21,23,25,27,29,31,33,35,37,-1,39,41,-1,43,-1,-1,45,47,49,51,-1,-1,-1,53,-1,-1,-1,-1,55,57,-1,-1,-1,-1,-1,-1,-1,-1,-1,-1,-1,-1,-1,-1,-1,-1],"loss_changes":[4.3537764E3,1.347495E3,2.3968184E3,4.3688824E2,5.1055298E1,1.358711E2,3.0813416E1,0E0,0E0,0E0,1.6184204E1,7.008984E1,5.219298E1,5.5637183E0,1.5401184E1,7.6660156E-1,1.1145752E1,5.325E1,6.977762E1,2.950901E1,8.167198E0,2.19101E0,0E0,5.062643E-1,5.411438E0,0E0,3.514465E-1,0E0,0E0,1.4149023E2,2.2832031E1,6.432458E1,5.962799E0,0E0,0E0,0E0,8.171563E0,0E0,0E0,0E0,0E0,7.3522735E0,5.418274E0,0E0,0E0,0E0,0E0,0E0,0E0,0E0,0E0,0E0,0E0,0E0,0E0,0E0,0E0,0E0,0E0],"parents":[2147483647,0,0,1,1,2,2,3,3,4,4,5,5,6,6,10,10,11,11,12,12,13,13,14,14,15,15,16,16,17,17,18,18,19,19,20,20,21,21,23,23,24,24,26,26,29,29,30,30,31,31,32,32,36,36,41,41,42,42],"right_children":[2,4,6,8,10,12,14,-1,-1,-1,16,18,20,22,24,26,28,30,32,34,36,38,-1,40,42,-1,44,-1,-1,46,48,50,52,-1,-1,-1,54,-1,-1,-1,-1,56,58,-1,-1,-1,-1,-1,-1,-1,-1,-1,-1,-1,-1,-1,-1,-1,-1],"split_conditions":[8E1,5.3E1,4.87E3,1.38E2,6.4E1,2.571972E2,5.75218E-1,-1.4734511E-1,1.4905666E-1,1.3121335E-1,1.383502E0,1.477E3,3E0,8.402E3,4.15611E-1,1.8552877E3,3.163E3,3E2,1.5433171E1,3.65E2,8.537E-3,5.984E-3,-6.58107E-2,1.2493077E2,2.208819E0,-1.490626E-1,5.5838E4,1.2111469E-1,-1.0481218E-1,7.6E1,2.09E-4,1.06E2,5.6304E4,-1.2193179E-1,1.4678839E-1,-1.466044E-1,1.4519314E3,-3.7178353E-3,1.4494292E-1,1.00461386E-1,1.0958856E-2,3.2E1,9.158E3,-4.536325E-3,-7.7605836E-2,1.4212218E-1,8.483226E-2,-8.546845E-2,1.4893088E-1,1.4607362E-1,-1.5904634E-1,1.4991897E-1,-4.655878E-2,4.7666248E-2,-1.4362949E-1,-1.17207125E-1,1.0656106E-1,-1.4804386E-1,3.7052616E-2],"split_indices":[1,1,12,0,12,4,5,0,0,0,15,12,2,1,14,14,0,12,15,0,15,8,0,4,7,0,0,0,0,12,4,1,0,0,0,0,4,0,0,0,0,2,1,0,0,0,0,0,0,0,0,0,0,0,0,0,0,0,0],"split_type":[0,0,0,0,0,0,0,0,0,0,0,0,0,0,0,0,0,0,0,0,0,0,0,0,0,0,0,0,0,0,0,0,0,0,0,0,0,0,0,0,0,0,0,0,0,0,0,0,0,0,0,0,0,0,0,0,0,0,0],"sum_hessian":[1.0154874E4,1.1379602E3,9.016914E3,3.2853513E2,8.094251E2,8.70126E3,3.1565466E2,6.0139225E1,2.683959E2,5.900099E0,8.0352496E2,8.65193E3,4.9329716E1,6.589913E0,3.0906476E2,7.967822E2,6.742775E0,8.590634E3,6.1295864E1,2.1841547E1,2.748817E1,4.9419994E0,1.6479132E0,2.6712189E0,3.0639352E2,7.945327E2,2.2494767E0,3.2571175E0,3.4856575E0,2.962904E3,5.62773E3,3.1069445E1,3.022642E1,4.42844E0,1.7413107E1,1.9707106E1,7.781064E0,1.1907729E0,3.7512267E0,1.4512442E0,1.2199746E0,4.0091887E0,3.0238434E2,1.1515005E0,1.0979762E0,2.4321426E3,5.307613E2,3.5620403E0,5.624168E3,8.957727E0,2.2111717E1,2.9034159E1,1.1922609E0,5.2864404E0,2.4946237E0,2.389819E0,1.61937E0,3.011564E2,1.2279351E0],"tree_param":{"num_deleted":"0","num_feature":"17","num_nodes":"59","size_leaf_vector":"0"}},{"base_weights":[1.0315523E0,-7.068304E-1,1.2491609E0,9.2383856E-1,-1.3835266E0,1.3452593E0,-1.3267752E0,-1.4041853E-1,1.4218982E-1,1.2760995E-1,-1.4082923E0,1.3515233E0,-2.801549E-1,8.482283E-3,-1.3876524E0,-1.4222333E0,1.631704E-1,1.216116E0,1.4146924E0,-1.6366313E0,1.2220837E0,-1.1125998E0,1.0337465E0,4.3097678E-1,-1.4041575E0,-2.6135072E-2,-1.4241199E-1,1.2076066E-1,-1.1170836E-1,1.3057917E0,-8.32249E-1,1.4208612E0,-4.0605965E-1,-1.710681E-1,-5.3155012E-2,-4.6838624E-3,1.3885848E-1,-4.288013E-3,-1.3038237E-1,-5.6954116E-2,1.4600457E-1,-2.735137E-2,9.437925E-2,-1.4105038E-1,-6.292348E-1,-1.535836E-1,1.3125686E-1,-1.5511598E-1,1.08443595E-1,-1.5888345E-1,1.4230318E-1,-1.6047035E-1,1.11034654E-1,-9.668426E-2,1.7401261E-2],"categories":[],"categories_nodes":[],"categories_segments":[],"categories_sizes":[],"default_left":[0,0,0,0,0,0,0,0,0,0,0,0,0,0,0,0,0,0,0,0,0,0,0,0,0,0,0,0,0,0,0,0,0,0,0,0,0,0,0,0,0,0,0,0,0,0,0,0,0,0,0,0,0,0,0],"id":5,"left_children":[1,3,5,7,9,11,13,-1,-1,-1,15,17,19,21,23,25,27,29,31,33,35,37,39,41,43,-1,-1,-1,-1,45,47,49,51,-1,-1,-1,-1,-1,-1,-1,-1,-1,-1,-1,53,-1,-1,-1,-1,-1,-1,-1,-1,-1,-1],"loss_changes":[3.647745E3,1.1854788E3,2.1228154E3,3.6762378E2,5.177942E1,8.44834E1,2.5101562E1,0E0,0E0,0E0,1.6713379E1,6.866699E1,6.8309135E1,1.7762157E1,9.466248E0,1.2611084E0,1.1394129E1,4.8324854E2,6.3533203E1,5.2495575E-1,3.4482327E0,1.4548159E0,6.3454094E0,1.4937778E0,5.524292E-1,0E0,0E0,0E0,0E0,5.045117E1,1.5422711E2,3.875586E1,3.759708E1,0E0,0E0,0E0,0E0,0E0,0E0,0E0,0E0,0E0,0E0,0E0,1.3027945E0,0E0,0E0,0E0,0E0,0E0,0E0,0E0,0E0,0E0,0E0],"parents":[2147483647,0,0,1,1,2,2,3,3,4,4,5,5,6,6,10,10,11,11,12,12,13,13,14,14,15,15,16,16,17,17,18,18,19,19,20,20,21,21,22,22,23,23,24,24,29,29,30,30,31,31,32,32,44,44],"right_children":[2,4,6,8,10,12,14,-1,-1,-1,16,18,20,22,24,26,28,30,32,34,36,38,40,42,44,-1,-1,-1,-1,46,48,50,52,-1,-1,-1,-1,-1,-1,-1,-1,-1,-1,-1,54,-1,-1,-1,-1,-1,-1,-1,-1,-1,-1],"split_conditions":[8E1,5.3E1,4.87E3,1E0,6.4E1,3.538E3,1.078129E0,-1.4041853E-1,1.4218982E-1,1.2760995E-1,1.383502E0,3.8769E-2,1.4611594E1,1.6E1,5.48572E-1,1.54E2,3.08E2,1.72E2,8.402E3,7.188E4,1.36945E-1,3.56415E-1,5.87866E-1,8.02E2,7.997919E1,-2.6135072E-2,-1.4241199E-1,1.2076066E-1,-1.1170836E-1,6E1,1.0253E-2,1.54E2,9.158E3,-1.710681E-1,-5.3155012E-2,-4.6838624E-3,1.3885848E-1,-4.288013E-3,-1.3038237E-1,-5.6954116E-2,1.4600457E-1,-2.735137E-2,9.437925E-2,-1.4105038E-1,4.43699E-1,-1.535836E-1,1.3125686E-1,-1.5511598E-1,1.08443595E-1,-1.5888345E-1,1.4230318E-1,-1.6047035E-1,1.11034654E-1,-9.668426E-2,1.7401261E-2],"split_indices":[1,1,12,1,12,13,5,0,0,0,15,15,16,11,14,3,3,3,1,3,5,15,15,13,16,0,0,0,0,12,16,3,1,0,0,0,0,0,0,0,0,0,0,0,6,0,0,0,0,0,0,0,0,0,0],"split_type":[0,0,0,0,0,0,0,0,0,0,0,0,0,0,0,0,0,0,0,0,0,0,0,0,0,0,0,0,0,0,0,0,0,0,0,0,0,0,0,0,0,0,0,0,0,0,0,0,0,0,0,0,0,0,0],"sum_hessian":[9.639468E3,1.0721631E3,8.567305E3,3.1433322E2,7.5782983E2,8.2596455E3,3.076586E2,5.507642E1,2.592568E2,6.5254526E0,7.513044E2,8.228105E3,3.1540302E1,1.34527E1,2.942059E2,7.4479205E2,6.5123816E0,2.6238853E3,5.60422E3,1.652724E1,1.50130625E1,6.3853793E0,7.06732E0,2.420225E0,2.9178568E2,1.4348732E0,7.433572E2,3.617751E0,2.894631E0,2.514179E3,1.0970626E2,5.585516E3,1.870439E1,1.4975726E1,1.5515143E0,1.8247961E0,1.3188267E1,1.1540098E0,5.2313695E0,1.4138592E0,5.6534605E0,1.2161536E0,1.2040713E0,2.8860196E2,3.1837175E0,5.444818E0,2.5087341E3,7.99204E1,2.9785862E1,3.4984503E0,5.5820176E3,1.0414229E1,8.290159E0,2.0981784E0,1.0855392E0],"tree_param":{"num_deleted":"0","num_feature":"17","num_nodes":"55","size_leaf_vector":"0"}},{"base_weights":[9.881954E-1,-6.9036496E-1,1.1972164E0,8.755584E-1,-1.3311056E0,1.2864316E0,-1.2777046E0,-1.3476835E-1,1.3650568E-1,1.2301747E-1,-1.3568642E0,1.2922506E0,-7.4451375E-1,-3.662487E-1,-1.3562851E0,-1.3643191E0,-2.1797664E-1,1.298421E0,-2.6579884E-1,2.0519072E-1,-1.262968E0,5.673386E-1,-1.2604839E0,-1.3632195E-1,-5.1122725E-1,-1.3654925E0,-3.207554E-2,7.6468706E-2,-1.0434925E-1,1.1744351E0,1.3564485E0,-1.4823207E-1,1.2159244E0,1.1621759E-1,-1.060447E-1,-1.3383673E-1,-5.612084E-2,1.0345559E0,-5.164078E-1,-1.3261008E-1,-2.928569E-2,-8.566693E-2,1.6442975E-2,-1.3665883E-1,-3.2641016E-2,1.2882619E-1,3.176058E-2,1.3615714E-1,-3.6210798E-2,2.0434199E-2,1.3239269E-1,1.3903897E-1,4.1950583E-3,-1.0483219E-1,5.3548284E-2],"categories":[],"categories_nodes":[],"categories_segments":[],"categories_sizes":[],"default_left":[0,0,0,0,0,0,0,0,0,0,0,0,0,0,0,0,0,0,0,0,0,0,0,0,0,0,0,0,0,0,0,0,0,0,0,0,0,0,0,0,0,0,0,0,0,0,0,0,0,0,0,0,0,0,0],"id":6,"left_children":[1,3,5,7,9,11,13,-1,-1,-1,15,17,19,21,23,25,27,29,31,33,35,37,39,-1,41,43,-1,-1,-1,45,47,-1,49,-1,-1,-1,-1,51,53,-1,-1,-1,-1,-1,-1,-1,-1,-1,-1,-1,-1,-1,-1,-1,-1],"loss_changes":[3.1828809E3,1.0094708E3,1.7825127E3,3.2005435E2,4.874475E1,9.29707E1,1.9638458E1,0E0,0E0,0E0,5.704468E0,7.4981445E1,1.15235615E1,2.048721E1,8.175049E-1,4.215088E-1,5.4925885E0,5.404297E1,5.8501118E1,1.2059363E1,3.9325714E-2,6.750354E0,3.9940262E-1,0E0,1.005253E0,3.5229492E-1,0E0,0E0,0E0,2.407649E2,4.6813477E1,0E0,1.3388691E0,0E0,0E0,0E0,0E0,3.0891237E0,3.0037699E0,0E0,0E0,0E0,0E0,0E0,0E0,0E0,0E0,0E0,0E0,0E0,0E0,0E0,0E0,0E0,0E0],"parents":[2147483647,0,0,1,1,2,2,3,3,4,4,5,5,6,6,10,10,11,11,12,12,13,13,14,14,15,15,16,16,17,17,18,18,19,19,20,20,21,21,22,22,24,24,25,25,29,29,30,30,32,32,37,37,38,38],"right_children":[2,4,6,8,10,12,14,-1,-1,-1,16,18,20,22,24,26,28,30,32,34,36,38,40,-1,42,44,-1,-1,-1,46,48,-1,50,-1,-1,-1,-1,52,54,-1,-1,-1,-1,-1,-1,-1,-1,-1,-1,-1,-1,-1,-1,-1,-1],"split_conditions":[8E1,5.3E1,4.87E3,1E0,6.4E1,8.9178766E2,4.774734E0,-1.3476835E-1,1.3650568E-1,1.2301747E-1,1.383502E0,3.538E3,3E0,8.402E3,7.997919E1,3E0,1.4E-5,3.8769E-2,1.4611594E1,1.06E2,1.0253E-2,7.27982E-1,3.2E1,-1.3632195E-1,4.43699E-1,2.7173914E3,-3.207554E-2,7.6468706E-2,-1.0434925E-1,7.6E1,8.402E3,-1.4823207E-1,1.0684E-1,1.1621759E-1,-1.060447E-1,-1.3383673E-1,-5.612084E-2,1.2493077E2,4.45E2,-1.3261008E-1,-2.928569E-2,-8.566693E-2,1.6442975E-2,-1.3665883E-1,-3.2641016E-2,1.2882619E-1,3.176058E-2,1.3615714E-1,-3.6210798E-2,2.0434199E-2,1.3239269E-1,1.3903897E-1,4.1950583E-3,-1.0483219E-1,5.3548284E-2],"split_indices":[1,1,12,1,12,4,9,0,0,0,15,13,2,1,16,11,6,15,16,1,16,8,2,0,6,14,0,0,0,12,1,0,4,0,0,0,0,4,1,0,0,0,0,0,0,0,0,0,0,0,0,0,0,0,0],"split_type":[0,0,0,0,0,0,0,0,0,0,0,0,0,0,0,0,0,0,0,0,0,0,0,0,0,0,0,0,0,0,0,0,0,0,0,0,0,0,0,0,0,0,0,0,0,0,0,0,0,0,0,0,0,0,0],"sum_hessian":[9.068449E3,1.00393805E3,8.064511E3,2.914033E2,7.125348E2,7.7843823E3,2.801286E2,5.22657E1,2.3913759E2,6.629009E0,7.0590576E2,7.762505E3,2.187756E1,2.2683498E1,2.574451E2,7.011185E2,4.7872505E0,7.7320503E3,3.0454756E1,7.9390435E0,1.3938516E1,1.1276412E1,1.1407087E1,2.5474164E2,2.7034686E0,7.0002295E2,1.0956056E0,2.2192373E0,2.5680132E0,2.4718186E3,5.2602314E3,1.6723804E1,1.3730951E1,4.567313E0,3.3717303E0,1.1767067E1,2.171449E0,7.9111853E0,3.3652265E0,1.03357315E1,1.0713558E0,1.611602E0,1.0918667E0,6.989706E2,1.0523454E0,2.1815093E3,2.9030936E2,5.2448047E3,1.5426781E1,1.6035583E0,1.2127393E1,5.528541E0,2.3826442E0,2.2372828E0,1.1279436E0],"tree_param":{"num_deleted":"0","num_feature":"17","num_nodes":"55","size_leaf_vector":"0"}},{"base_weights":[9.468544E-1,-6.5112776E-1,1.1477249E0,8.591152E-1,-1.2736052E0,1.2390751E0,-1.106197E0,-1.2994498E-1,1.3177097E-1,9.0520114E-1,-1.3050532E0,1.2475187E0,-2.4648426E-1,8.8844335E-1,-1.2275515E0,-1.8254429E-1,1.2577407E-1,-1.3202712E-1,-5.5619493E-2,1.1250665E0,1.3076257E0,1.301155E-1,-1.0480007E0,-5.73015E-2,1.1126622E0,-2.268476E-2,-1.2829087E0,-5.1777907E-2,2.0804644E-2,9.72413E-1,-1.1037947E-1,1.1656436E0,-3.338432E-1,1.312542E0,-2.291961E-1,-1.2604039E0,-2.4572352E-1,6.0625067E-3,1.267231E-1,1.2385797E-1,-1.0765946E0,-1.2142618E-2,-1.2912021E0,1.1765643E-1,2.2216728E-2,8.949917E-2,1.2644593E-1,-1.4522886E-1,8.132241E-2,-7.766732E-2,1.3144748E-1,1.2355224E-1,-1.366852E-1,-1.3017486E-1,-4.884347E-2,1.0136203E-1,-8.017641E-2,-1.16458535E-1,-3.1737756E-2,-2.3947945E-2,-1.2989822E-1],"categories":[],"categories_nodes":[],"categories_segments":[],"categories_sizes":[],"default_left":[0,0,0,0,0,0,0,0,0,0,0,0,0,0,0,0,0,0,0,0,0,0,0,0,0,0,0,0,0,0,0,0,0,0,0,0,0,0,0,0,0,0,0,0,0,0,0,0,0,0,0,0,0,0,0,0,0,0,0,0,0],"id":7,"left_children":[1,3,5,7,9,11,13,-1,-1,15,17,19,21,23,25,27,-1,-1,29,31,33,-1,35,-1,37,39,41,-1,-1,43,-1,45,47,49,51,53,55,-1,-1,-1,57,-1,59,-1,-1,-1,-1,-1,-1,-1,-1,-1,-1,-1,-1,-1,-1,-1,-1,-1,-1],"loss_changes":[2.7420298E3,8.982073E2,1.5634766E3,2.780185E2,4.7511353E1,9.177246E1,7.2750305E1,0E0,0E0,4.1452456E0,1.2607666E1,5.1896484E1,5.3519707E1,6.3912525E0,1.8611908E1,5.493311E-1,0E0,0E0,1.0846258E1,1.4213672E2,3.7000977E1,0E0,4.504942E0,0E0,2.453888E0,1.90056E1,2.4169922E0,0E0,0E0,5.2133083E-1,0E0,6.118042E1,8.530668E1,2.0572266E1,2.8917955E1,6.945801E-2,5.824048E0,0E0,0E0,0E0,1.4997005E-1,0E0,1.8588257E0,0E0,0E0,0E0,0E0,0E0,0E0,0E0,0E0,0E0,0E0,0E0,0E0,0E0,0E0,0E0,0E0,0E0,0E0],"parents":[2147483647,0,0,1,1,2,2,3,3,4,4,5,5,6,6,9,9,10,10,11,11,12,12,13,13,14,14,15,15,18,18,19,19,20,20,22,22,24,24,25,25,26,26,29,29,31,31,32,32,33,33,34,34,35,35,36,36,40,40,42,42],"right_children":[2,4,6,8,10,12,14,-1,-1,16,18,20,22,24,26,28,-1,-1,30,32,34,-1,36,-1,38,40,42,-1,-1,44,-1,46,48,50,52,54,56,-1,-1,-1,58,-1,60,-1,-1,-1,-1,-1,-1,-1,-1,-1,-1,-1,-1,-1,-1,-1,-1,-1,-1],"split_conditions":[8E1,5.3E1,5.406E3,1.38E2,1.54E2,2.571972E2,1.014811E0,-1.2994498E-1,1.3177097E-1,8E-6,4.49406E-1,2.74E2,1.54E2,3.8023888E1,3.327E-3,4.7069E4,1.2577407E-1,-1.3202712E-1,9.039E-3,1.496E-2,8.402E3,1.301155E-1,8.537E-3,-5.73015E-2,1.43685E-1,4.774734E0,9.0753E-2,-5.1777907E-2,2.0804644E-2,1.6162923E2,-1.1037947E-1,3.4045E4,1.58E2,2.09E-4,1.09922E-1,5.8E-5,1.767E-3,6.0625067E-3,1.267231E-1,1.2385797E-1,5.49672E5,-1.2142618E-2,1.909224E0,1.1765643E-1,2.2216728E-2,8.949917E-2,1.2644593E-1,-1.4522886E-1,8.132241E-2,-7.766732E-2,1.3144748E-1,1.2355224E-1,-1.366852E-1,-1.3017486E-1,-4.884347E-2,1.0136203E-1,-8.017641E-2,-1.16458535E-1,-3.1737756E-2,-2.3947945E-2,-1.2989822E-1],"split_indices":[1,1,3,0,3,4,4,0,0,4,15,3,3,14,8,0,0,0,6,4,1,0,15,0,4,9,9,0,0,15,0,0,1,4,5,6,7,0,0,0,3,0,4,0,0,0,0,0,0,0,0,0,0,0,0,0,0,0,0,0,0],"split_type":[0,0,0,0,0,0,0,0,0,0,0,0,0,0,0,0,0,0,0,0,0,0,0,0,0,0,0,0,0,0,0,0,0,0,0,0,0,0,0,0,0,0,0,0,0,0,0,0,0,0,0,0,0,0,0,0,0,0,0,0,0],"sum_hessian":[8.539153E3,9.5328217E2,7.5858716E3,2.7812366E2,6.751585E2,7.2908286E3,2.9504276E2,4.8413223E1,2.2971043E2,9.21102E0,6.6594745E2,7.249783E3,4.1045834E1,1.655849E1,2.7848425E2,2.3726163E0,6.838404E0,6.57878E2,8.069499E0,2.3934597E3,4.856323E3,1.379188E1,2.7253952E1,1.9955953E0,1.4562895E1,1.2294742E1,2.661895E2,1.1015506E0,1.2710656E0,4.110384E0,3.9591153E0,2.3288867E3,6.4572945E1,4.8409824E3,1.5340656E1,2.109738E1,6.156573E0,2.0438833E0,1.25190115E1,5.517027E0,6.7777143E0,1.998104E0,2.641914E2,2.784459E0,1.3259251E0,6.2556116E2,1.7033257E3,3.2559647E1,3.2013298E1,4.103706E0,4.836879E3,6.668726E0,8.67193E0,1.9373514E1,1.7238657E0,1.6336623E0,4.5229106E0,5.595307E0,1.1824076E0,2.1733813E0,2.6201804E2],"tree_param":{"num_deleted":"0","num_feature":"17","num_nodes":"61","size_leaf_vector":"0"}},{"base_weights":[9.1277325E-1,9.8920834E-1,-1.1726339E0,6.0930204E-1,1.2453938E0,-1.6634288E-1,-1.2655584E0,1.1131512E0,-1.0067468E0,-1.0592217E0,1.2583883E0,-4.7389844E-1,1.1146095E-1,-1.2721805E-1,-5.3086865E-1,1.189106E0,5.3231645E-1,1.064921E0,-1.1933305E0,1.0770483E-1,-1.372572E-1,1.2681292E0,-5.8606964E-2,1.1206094E-1,-9.0240276E-1,1.5057959E-2,-8.6378895E-2,9.0473604E-1,1.2855163E0,-1.7959633E0,1.1476848E0,-1.0718968E-1,1.2678041E0,3.1871873E-1,-1.2775923E0,1.2700789E0,-7.843729E-1,-1.4368948E0,9.050362E-1,-1.1844226E0,1.3192002E-1,1.2073397E-1,5.483612E-2,1.1134726E-1,1.2973303E-1,-2.1469808E-1,-7.23809E-2,1.3624792E-1,-7.313132E-2,1.5013461E-2,1.2870264E-1,1.2139423E-1,-1.15615405E-1,-1.3056466E-1,1.3045467E-1,1.271952E-1,-5.132068E-2,-1.0496008E-1,1.2701429E-2,-4.4194397E-2,-1.518923E-1,9.890311E-2,9.2774315E-4,-1.2356325E-1,-3.65618E-2],"categories":[],"categories_nodes":[],"categories_segments":[],"categories_sizes":[],"default_left":[0,0,0,0,0,0,0,0,0,0,0,0,0,0,0,0,0,0,0,0,0,0,0,0,0,0,0,0,0,0,0,0,0,0,0,0,0,0,0,0,0,0,0,0,0,0,0,0,0,0,0,0,0,0,0,0,0,0,0,0,0,0,0,0,0],"id":8,"left_children":[1,3,5,7,9,11,13,15,17,19,21,23,-1,-1,25,27,29,31,33,-1,-1,35,37,-1,39,-1,-1,41,43,45,47,-1,49,51,53,55,57,59,61,63,-1,-1,-1,-1,-1,-1,-1,-1,-1,-1,-1,-1,-1,-1,-1,-1,-1,-1,-1,-1,-1,-1,-1,-1,-1],"loss_changes":[1.2751255E3,7.496577E2,2.6256134E1,2.5312043E3,1.3921045E2,1.0408267E1,5.845032E-1,1.03890625E2,2.8694293E2,1.9121704E1,5.8813477E1,1.5308123E1,0E0,0E0,1.0442013E0,5.6258057E1,3.9721497E2,2.8060173E1,8.684833E1,0E0,0E0,1.9184082E1,4.7219345E1,0E0,1.224272E1,0E0,0E0,5.6888702E1,1.7299805E0,2.029129E1,8.928549E1,0E0,1.0251083E0,4.974517E1,4.827112E1,1.5820801E1,1.3253434E0,5.21286E-1,1.5678844E0,2.0458412E-1,0E0,0E0,0E0,0E0,0E0,0E0,0E0,0E0,0E0,0E0,0E0,0E0,0E0,0E0,0E0,0E0,0E0,0E0,0E0,0E0,0E0,0E0,0E0,0E0,0E0],"parents":[2147483647,0,0,1,1,2,2,3,3,4,4,5,5,6,6,7,7,8,8,9,9,10,10,11,11,14,14,15,15,16,16,17,17,18,18,21,21,22,22,24,24,27,27,28,28,29,29,30,30,32,32,33,33,34,34,35,35,36,36,37,37,38,38,39,39],"right_children":[2,4,6,8,10,12,14,16,18,20,22,24,-1,-1,26,28,30,32,34,-1,-1,36,38,-1,40,-1,-1,42,44,46,48,-1,50,52,54,56,58,60,62,64,-1,-1,-1,-1,-1,-1,-1,-1,-1,-1,-1,-1,-1,-1,-1,-1,-1,-1,-1,-1,-1,-1,-1,-1,-1],"split_conditions":[4.87E3,2.14E2,2.496742E0,7.142E-3,8.537E-3,2.0995623E1,7.997919E1,7.6E1,3.163E3,2.4E2,3.67E3,1.72164E-1,1.1146095E-1,-1.2721805E-1,7.9959785E1,3.4045E4,1.09E2,3E0,1.54E2,1.0770483E-1,-1.372572E-1,9.979161E0,1.957807E0,1.1206094E-1,3.87E4,1.5057959E-2,-8.6378895E-2,3.3842E4,4E-6,9E1,1.55E2,-1.0718968E-1,6.8E-5,9.419E-3,5.75218E-1,3.2E1,5E0,1.84646E-1,2.167E3,2.0642E4,1.3192002E-1,1.2073397E-1,5.483612E-2,1.1134726E-1,1.2973303E-1,-2.1469808E-1,-7.23809E-2,1.3624792E-1,-7.313132E-2,1.5013461E-2,1.2870264E-1,1.2139423E-1,-1.15615405E-1,-1.3056466E-1,1.3045467E-1,1.271952E-1,-5.132068E-2,-1.0496008E-1,1.2701429E-2,-4.4194397E-2,-1.518923E-1,9.890311E-2,9.2774315E-4,-1.2356325E-1,-3.65618E-2],"split_indices":[12,12,5,4,15,15,16,12,0,3,13,16,0,0,15,0,12,2,3,0,0,7,16,0,12,0,0,0,8,12,12,0,5,5,5,2,11,15,12,12,0,0,0,0,0,0,0,0,0,0,0,0,0,0,0,0,0,0,0,0,0,0,0,0,0],"split_type":[0,0,0,0,0,0,0,0,0,0,0,0,0,0,0,0,0,0,0,0,0,0,0,0,0,0,0,0,0,0,0,0,0,0,0,0,0,0,0,0,0,0,0,0,0,0,0,0,0,0,0,0,0,0,0,0,0,0,0,0,0,0,0,0,0],"sum_hessian":[7.991342E3,7.709303E3,2.8203845E2,3.1062766E3,4.603027E3,2.4078573E1,2.5795987E2,2.368226E3,7.3805054E2,2.5356966E1,4.57767E3,1.992471E1,4.1538634E0,2.5493051E2,3.0293581E0,2.093425E3,2.74801E2,6.0591072E1,6.774595E2,2.9318483E0,2.2425117E1,4.544097E3,3.3572865E1,3.8782365E0,1.6046474E1,1.1740068E0,1.8553514E0,5.3266644E2,1.5607585E3,5.7045963E1,2.1775504E2,4.882629E0,5.5708443E1,3.561302E1,6.4184644E2,4.5401655E3,3.9313378E0,1.3612276E1,1.996059E1,1.4653195E1,1.3932781E0,2.867741E2,2.4589236E2,1.06408264E2,1.4543502E3,4.2220657E1,1.4825307E1,1.9566306E2,2.2091988E1,1.0908718E0,5.4617573E1,2.2271503E1,1.3341519E1,6.3543695E2,6.4095044E0,4.5356885E3,4.4771647E0,2.9276845E0,1.0036532E0,1.5233018E0,1.2088975E1,1.8154156E1,1.8064342E0,1.3311588E1,1.341607E0],"tree_param":{"num_deleted":"0","num_feature":"17","num_nodes":"65","size_leaf_vector":"0"}},{"base_weights":[8.8494664E-1,-6.152473E-1,1.0709698E0,8.115423E-1,-1.2055299E0,1.1568573E0,-1.0436561E0,-1.23952806E-1,1.24517314E-1,8.1775165E-1,-1.2310413E0,1.1647551E0,-1.7988633E-1,7.973827E-1,-1.1661566E0,1.15426295E-1,-7.15842E-2,-1.24284E0,3.7028108E-2,1.03078E0,1.2323989E0,1.2175634E-1,-9.87638E-1,-5.7659555E-2,1.0327566E0,-1.8637078E-1,-1.215877E0,-1.2455421E-1,6.04512E-3,9.9327534E-2,-9.561007E-2,1.1447247E0,3.861963E-1,1.2374232E0,-3.7442207E-1,-1.1107293E0,3.4453455E-2,-8.337266E-3,1.1943954E-1,7.838459E-1,-8.092552E-1,3.8543146E-2,-1.2256263E0,5.1361542E-2,1.2473307E-1,-1.7228499E-1,9.642672E-2,-5.3686774E-3,1.2408036E-1,1.1056962E-1,-1.3349074E-1,-1.1566043E-1,-1.196877E-2,-3.2572903E-2,1.2166261E-1,-1.1502426E-1,6.981983E-2,-3.381129E-2,-1.2334068E-1],"categories":[],"categories_nodes":[],"categories_segments":[],"categories_sizes":[],"default_left":[0,0,0,0,0,0,0,0,0,0,0,0,0,0,0,0,0,0,0,0,0,0,0,0,0,0,0,0,0,0,0,0,0,0,0,0,0,0,0,0,0,0,0,0,0,0,0,0,0,0,0,0,0,0,0,0,0,0,0],"id":9,"left_children":[1,3,5,7,9,11,13,-1,-1,15,17,19,21,23,25,-1,-1,27,29,31,33,-1,35,-1,37,39,41,-1,-1,-1,-1,43,45,47,49,51,-1,-1,-1,53,55,-1,57,-1,-1,-1,-1,-1,-1,-1,-1,-1,-1,-1,-1,-1,-1,-1,-1],"loss_changes":[2.081205E3,6.941992E2,1.2059209E3,2.1631029E2,3.1080078E1,6.751074E1,5.943698E1,0E0,0E0,4.8803716E0,8.660461E0,5.6163086E1,4.4445286E1,6.021678E0,1.1642578E1,0E0,0E0,2.0842285E0,6.9126115E0,1.5617212E2,3.4419434E1,0E0,4.454071E0,0E0,2.748538E0,8.459165E0,4.089508E0,0E0,0E0,0E0,0E0,1.16664795E2,3.940235E2,1.8368164E1,2.1206266E1,9.0566444E-1,0E0,0E0,0E0,3.0712326E0,5.109291E0,0E0,1.1748962E0,0E0,0E0,0E0,0E0,0E0,0E0,0E0,0E0,0E0,0E0,0E0,0E0,0E0,0E0,0E0,0E0],"parents":[2147483647,0,0,1,1,2,2,3,3,4,4,5,5,6,6,9,9,10,10,11,11,12,12,13,13,14,14,17,17,18,18,19,19,20,20,22,22,24,24,25,25,26,26,31,31,32,32,33,33,34,34,35,35,39,39,40,40,42,42],"right_children":[2,4,6,8,10,12,14,-1,-1,16,18,20,22,24,26,-1,-1,28,30,32,34,-1,36,-1,38,40,42,-1,-1,-1,-1,44,46,48,50,52,-1,-1,-1,54,56,-1,58,-1,-1,-1,-1,-1,-1,-1,-1,-1,-1,-1,-1,-1,-1,-1,-1],"split_conditions":[8E1,5.3E1,5.406E3,1.38E2,1.54E2,2.571972E2,1.014811E0,-1.23952806E-1,1.24517314E-1,7.6E1,1.383502E0,2.74E2,1.54E2,3.8023888E1,3.327E-3,1.15426295E-1,-7.15842E-2,4E0,3.08E2,7.6E1,8.402E3,1.2175634E-1,8.05E-4,-5.7659555E-2,1.43685E-1,7.822E3,1.11324E-1,-1.2455421E-1,6.04512E-3,9.9327534E-2,-9.561007E-2,1.06E2,1.09E2,3.65E2,1.09922E-1,4.7321E-2,3.4453455E-2,-8.337266E-3,1.1943954E-1,4.1464E4,4E-6,3.8543146E-2,1.909224E0,5.1361542E-2,1.2473307E-1,-1.7228499E-1,9.642672E-2,-5.3686774E-3,1.2408036E-1,1.1056962E-1,-1.3349074E-1,-1.1566043E-1,-1.196877E-2,-3.2572903E-2,1.2166261E-1,-1.1502426E-1,6.981983E-2,-3.381129E-2,-1.2334068E-1],"split_indices":[1,1,3,0,3,4,4,0,0,12,15,3,3,14,8,0,0,11,3,12,1,0,6,0,4,12,15,0,0,0,0,1,12,0,5,14,0,0,0,0,8,0,4,0,0,0,0,0,0,0,0,0,0,0,0,0,0,0,0],"split_type":[0,0,0,0,0,0,0,0,0,0,0,0,0,0,0,0,0,0,0,0,0,0,0,0,0,0,0,0,0,0,0,0,0,0,0,0,0,0,0,0,0,0,0,0,0,0,0,0,0,0,0,0,0,0,0,0,0,0,0],"sum_hessian":[7.454262E3,8.220984E2,6.632164E3,2.4047188E2,5.816265E2,6.3737417E3,2.584224E2,4.1642883E1,1.9882898E2,6.855697E0,5.747708E2,6.3364326E3,3.7308884E1,1.5778661E1,2.4264372E2,5.8249054E0,1.0307919E0,5.694919E2,5.2789164E0,2.131339E3,4.2050933E3,1.3480175E1,2.3828709E1,2.0956652E0,1.3682996E1,1.1947888E1,2.3069585E2,5.683579E2,1.1339878E0,2.6893206E0,2.5895958E0,1.8105139E3,3.208252E2,4.192215E3,1.2878603E1,2.1965359E1,1.8633488E0,1.7921631E0,1.1890832E1,4.5704517E0,7.3774366E0,1.1628573E0,2.2953299E2,2.5402995E2,1.556484E3,6.859207E1,2.5223312E2,1.09087925E1,4.181306E3,5.008801E0,7.8698015E0,2.0833906E1,1.131453E0,1.3518625E0,3.2185893E0,6.2097483E0,1.167688E0,2.3810966E0,2.2715189E2],"tree_param":{"num_deleted":"0","num_feature":"17","num_nodes":"59","size_leaf_vector":"0"}},{"base_weights":[8.621903E-1,-6.2079746E-1,1.0434229E0,7.626465E-1,-1.1800181E0,1.1224676E0,-1.0461961E0,-1.20710194E-1,1.2151467E-1,8.352693E-1,-1.2044369E0,9.9166685E-1,1.1898246E0,3.5620835E-1,-1.1634717E0,1.7482815E-3,1.0884968E-1,-1.209367E0,2.723963E-2,1.0336291E0,-2.8619048E-1,-3.2133344E-1,1.1990981E0,-6.931276E-1,1.1016774E0,-1.1751292E0,3.7521027E-2,-1.2122418E-1,-7.376566E-3,8.764825E-1,1.2271366E0,-1.4290614E0,1.1745124E0,2.613704E-1,-8.334314E-1,1.2061808E0,-5.244085E-1,-1.14370935E-1,8.660781E-2,2.8021557E-2,1.16140604E-1,9.966778E-3,-1.1842023E0,1.0405403E-1,-2.1360843E-1,1.232897E-1,2.0832857E-2,-1.485593E-1,1.440866E-2,1.7924883E-3,1.22091964E-1,-1.004683E-1,8.47449E-2,-1.2762392E-1,2.8993422E-2,1.2104676E-1,-5.497959E-2,1.0776865E-1,-1.2917398E-1,-7.254763E-2,-1.2061336E-1],"categories":[],"categories_nodes":[],"categories_segments":[],"categories_sizes":[],"default_left":[0,0,0,0,0,0,0,0,0,0,0,0,0,0,0,0,0,0,0,0,0,0,0,0,0,0,0,0,0,0,0,0,0,0,0,0,0,0,0,0,0,0,0,0,0,0,0,0,0,0,0,0,0,0,0,0,0,0,0,0,0],"id":10,"left_children":[1,3,5,7,9,11,13,-1,-1,15,17,19,21,23,25,-1,-1,27,-1,29,31,33,35,37,39,41,-1,-1,-1,43,45,47,49,51,53,55,57,-1,-1,-1,-1,-1,59,-1,-1,-1,-1,-1,-1,-1,-1,-1,-1,-1,-1,-1,-1,-1,-1,-1,-1],"loss_changes":[1.8588882E3,5.838882E2,1.0188779E3,1.9535184E2,2.7433716E1,5.1129883E1,3.743495E1,0E0,0E0,1.4346452E0,4.1956787E0,1.0883667E2,5.523633E1,1.495067E1,4.1710815E0,0E0,0E0,1.638855E0,0E0,5.8528076E1,1.10423325E2,7.5770025E0,4.8124023E1,6.713995E0,2.1375847E-1,2.5080566E0,0E0,0E0,0E0,5.385425E2,4.883423E0,3.5043182E0,1.5423393E0,9.975874E0,7.0182276E0,2.983252E1,2.1822733E1,0E0,0E0,0E0,0E0,0E0,1.1899109E0,0E0,0E0,0E0,0E0,0E0,0E0,0E0,0E0,0E0,0E0,0E0,0E0,0E0,0E0,0E0,0E0,0E0,0E0],"parents":[2147483647,0,0,1,1,2,2,3,3,4,4,5,5,6,6,9,9,10,10,11,11,12,12,13,13,14,14,17,17,19,19,20,20,21,21,22,22,23,23,24,24,25,25,29,29,30,30,31,31,32,32,33,33,34,34,35,35,36,36,42,42],"right_children":[2,4,6,8,10,12,14,-1,-1,16,18,20,22,24,26,-1,-1,28,-1,30,32,34,36,38,40,42,-1,-1,-1,44,46,48,50,52,54,56,58,-1,-1,-1,-1,-1,60,-1,-1,-1,-1,-1,-1,-1,-1,-1,-1,-1,-1,-1,-1,-1,-1,-1,-1],"split_conditions":[8E1,5.3E1,6.689E3,1E0,1.54E2,2.74E2,1.326954E0,-1.20710194E-1,1.2151467E-1,2E0,9.0263565E1,8.6E1,4.7321E-2,3.8023888E1,9.158E3,1.7482815E-3,1.0884968E-1,3E0,2.723963E-2,5.432E3,1.0253E-2,7E-6,8.402E3,4.45E2,1.49088E-1,4.15611E-1,3.7521027E-2,-1.2122418E-1,-7.376566E-3,5.353E3,9.419E-3,4.6E-5,2.246E-3,3.849E-3,1.1E1,3.538E3,1.09922E-1,-1.14370935E-1,8.660781E-2,2.8021557E-2,1.16140604E-1,9.966778E-3,4.430772E0,1.0405403E-1,-2.1360843E-1,1.232897E-1,2.0832857E-2,-1.485593E-1,1.440866E-2,1.7924883E-3,1.22091964E-1,-1.004683E-1,8.47449E-2,-1.2762392E-1,2.8993422E-2,1.2104676E-1,-5.497959E-2,1.0776865E-1,-1.2917398E-1,-7.254763E-2,-1.2061336E-1],"split_indices":[1,1,3,1,3,3,7,0,0,2,16,13,14,14,1,0,0,11,0,1,16,8,1,1,8,14,0,0,0,1,5,6,5,14,2,13,5,0,0,0,0,0,9,0,0,0,0,0,0,0,0,0,0,0,0,0,0,0,0,0,0],"split_type":[0,0,0,0,0,0,0,0,0,0,0,0,0,0,0,0,0,0,0,0,0,0,0,0,0,0,0,0,0,0,0,0,0,0,0,0,0,0,0,0,0,0,0,0,0,0,0,0,0,0,0,0,0,0,0,0,0,0,0,0,0],"sum_hessian":[6.9129795E3,7.525552E2,6.1604243E3,2.1652782E2,5.3602734E2,5.9363315E3,2.2409276E2,4.0138023E1,1.763898E2,6.0196686E0,5.300077E2,2.0231976E3,3.9131338E3,1.713629E1,2.0695647E2,1.6760341E0,4.3436346E0,5.2842474E2,1.5829314E0,1.9590574E3,6.414029E1,2.366197E1,3.8894717E3,7.1466904E0,9.989599E0,2.0563478E2,1.3216807E0,5.270232E2,1.4016091E0,1.0841517E3,8.749055E2,3.5997272E1,2.8143023E1,1.1296999E1,1.2364971E1,3.8738525E3,1.5619232E1,5.751184E0,1.3955067E0,1.0628899E0,8.926709E0,1.3826602E0,2.0425212E2,1.0287812E3,5.5370556E1,8.697777E2,5.1278486E0,3.4802296E1,1.1949753E0,1.1391342E0,2.7003887E1,3.348749E0,7.94825E0,8.771386E0,3.5935853E0,3.8647285E3,9.1240635E0,4.927256E0,1.0691976E1,1.08745E1,1.9337762E2],"tree_param":{"num_deleted":"0","num_feature":"17","num_nodes":"61","size_leaf_vector":"0"}},{"base_weights":[8.4163254E-1,9.1015697E-1,-1.0833781E0,6.100822E-1,1.1597909E0,9.625656E-1,-1.1656859E0,1.0035866E0,-3.066185E-1,1.172801E0,-6.677676E-1,1.0540592E-1,3.0620292E-2,-1.1830783E0,-3.4853283E-1,-1.5252091E0,1.0291548E0,-1.1706334E0,1.0609556E0,-1.3135251E-2,1.1891558E0,1.5987201E-1,-9.802435E-1,-2.8004676E-2,-1.1862644E-1,-7.8241624E-2,8.440635E-2,-9.7650975E-1,-2.0643945E-1,7.9118526E-1,1.1389506E0,-1.1835463E0,7.9193294E-2,1.0849172E0,-1.015604E0,9.6094346E-1,-9.723562E-1,1.1897155E0,5.0942E-1,1.0198747E-1,-1.1411718E-1,-1.1477499E0,5.909706E-2,-1.084876E-1,4.552418E-3,1.0351884E-1,9.046791E-3,4.8925612E-2,1.2035718E-1,-1.19219184E-1,-2.077449E-2,1.1449915E-1,3.481203E-2,-2.516524E-1,6.344523E-2,-3.3968561E-3,1.1861103E-1,-1.162195E-1,8.1331596E-2,1.18987955E-1,3.4457333E-2,-3.513604E-2,8.869884E-2,-1.3238928E-1,6.447497E-2],"categories":[],"categories_nodes":[],"categories_segments":[],"categories_sizes":[],"default_left":[0,0,0,0,0,0,0,0,0,0,0,0,0,0,0,0,0,0,0,0,0,0,0,0,0,0,0,0,0,0,0,0,0,0,0,0,0,0,0,0,0,0,0,0,0,0,0,0,0,0,0,0,0,0,0,0,0,0,0,0,0,0,0,0,0],"id":11,"left_children":[1,3,5,7,9,11,13,15,17,19,21,-1,-1,23,25,27,29,31,33,35,37,39,41,-1,-1,-1,-1,43,-1,45,47,49,-1,51,53,55,57,59,61,-1,-1,63,-1,-1,-1,-1,-1,-1,-1,-1,-1,-1,-1,-1,-1,-1,-1,-1,-1,-1,-1,-1,-1,-1,-1],"loss_changes":[8.453384E2,4.6233984E2,3.825006E1,1.0136758E3,8.098779E1,2.2219467E-1,2.6063843E0,1.286687E2,9.990951E2,6.498633E1,6.4879246E0,0E0,0E0,2.649536E-1,3.684499E0,3.924572E0,4.996167E1,1.4064453E1,1.7396942E1,4.443409E1,6.513672E-1,9.633239E0,5.392418E0,0E0,0E0,0E0,0E0,1.3617611E0,0E0,1.05549194E2,5.5241455E1,4.097168E0,0E0,1.3952972E1,1.212792E1,5.3276234E0,9.065332E0,4.736328E-2,1.7635623E0,0E0,0E0,6.0714073E0,0E0,0E0,0E0,0E0,0E0,0E0,0E0,0E0,0E0,0E0,0E0,0E0,0E0,0E0,0E0,0E0,0E0,0E0,0E0,0E0,0E0,0E0,0E0],"parents":[2147483647,0,0,1,1,2,2,3,3,4,4,5,5,6,6,7,7,8,8,9,9,10,10,13,13,14,14,15,15,16,16,17,17,18,18,19,19,20,20,21,21,22,22,27,27,29,29,30,30,31,31,33,33,34,34,35,35,36,36,37,37,38,38,41,41],"right_children":[2,4,6,8,10,12,14,16,18,20,22,-1,-1,24,26,28,30,32,34,36,38,40,42,-1,-1,-1,-1,44,-1,46,48,50,-1,52,54,56,58,60,62,-1,-1,64,-1,-1,-1,-1,-1,-1,-1,-1,-1,-1,-1,-1,-1,-1,-1,-1,-1,-1,-1,-1,-1,-1,-1],"split_conditions":[7.962728E0,7.503023E0,4.76794E-1,5.983E-3,6E0,9.979161E0,4.3675E4,3.65E2,3E0,4.7321E-2,3.327E-3,1.0540592E-1,3.0620292E-2,1.428302E0,1.257E3,1.38E2,3.4045E4,3.96729E-1,6.0151E4,4E0,5E0,1.4519314E3,2.571972E2,-2.8004676E-2,-1.1862644E-1,-7.8241624E-2,8.440635E-2,4.640371E2,-2.0643945E-1,2.0618557E3,4E-6,1.4450581E2,7.9193294E-2,3.67E3,1.0684E-1,3.65E2,7E2,1.939366E0,7E0,1.0198747E-1,-1.1411718E-1,9.87201E-1,5.909706E-2,-1.084876E-1,4.552418E-3,1.0351884E-1,9.046791E-3,4.8925612E-2,1.2035718E-1,-1.19219184E-1,-2.077449E-2,1.1449915E-1,3.481203E-2,-2.516524E-1,6.344523E-2,-3.3968561E-3,1.1861103E-1,-1.162195E-1,8.1331596E-2,1.18987955E-1,3.4457333E-2,-3.513604E-2,8.869884E-2,-1.3238928E-1,6.447497E-2],"split_indices":[7,4,14,4,11,7,0,0,2,14,8,0,0,5,11,0,0,5,0,2,11,4,4,0,0,0,0,14,0,14,8,14,0,13,4,0,13,8,10,0,0,15,0,0,0,0,0,0,0,0,0,0,0,0,0,0,0,0,0,0,0,0,0,0,0],"split_type":[0,0,0,0,0,0,0,0,0,0,0,0,0,0,0,0,0,0,0,0,0,0,0,0,0,0,0,0,0,0,0,0,0,0,0,0,0,0,0,0,0,0,0,0,0,0,0,0,0,0,0,0,0,0,0,0,0,0,0,0,0,0,0,0,0],"sum_hessian":[6.399962E3,6.180483E3,2.194789E2,2.8082473E3,3.3722356E3,8.074502E0,2.114044E2,1.9647574E3,8.4348975E2,3.3487546E3,2.3480997E1,6.5548763E0,1.5196257E0,2.0656015E2,4.8442426E0,1.9079279E1,1.9456781E3,5.1700006E2,3.264897E2,4.5555786E1,3.303199E3,6.5693784E0,1.691162E1,1.038782E0,2.0552138E2,3.8041706E0,1.0400721E0,1.08494625E1,8.2298155E0,6.168768E2,1.3288014E3,5.140151E2,2.9850388E0,3.2323737E2,3.2523196E0,2.2601948E1,2.2953836E1,3.2997314E3,3.4673667E0,4.085159E0,2.4842193E0,1.5525922E1,1.3856965E0,9.753783E0,1.0956798E0,4.571953E2,1.5968147E2,1.20986595E2,1.2078148E3,5.092811E2,4.7339487E0,2.98357E2,2.488038E1,1.4281424E0,1.8241771E0,4.327922E0,1.8274027E1,2.1063667E1,1.8901694E0,3.2986833E3,1.0480717E0,1.0783522E0,2.3890145E0,1.4374786E1,1.1511352E0],"tree_param":{"num_deleted":"0","num_feature":"17","num_nodes":"65","size_leaf_vector":"0"}},{"base_weights":[8.1448615E-1,8.831492E-1,-1.0761137E0,5.332661E-1,1.1267694E0,-6.3675374E-2,-1.1423092E0,9.6638626E-1,-8.9682215E-1,-1.0960728E0,1.1410687E0,-7.6682985E-1,8.5275537E-1,-1.15979925E-1,-2.6696247E-1,1.0466398E0,4.13624E-1,9.870656E-1,-1.0817196E0,6.730903E-2,-1.3043518E-1,1.1521947E0,-9.389268E-2,3.041136E-2,-9.947444E-2,-2.8436512E-2,1.19045354E-1,1.048063E-1,-8.917614E-2,7.2701436E-1,1.1647036E0,-1.4289234E0,9.8378456E-1,1.1646866E-1,-9.337596E-2,1.1253812E-1,-1.1635509E0,1.1613739E0,5.3117883E-1,-1.3493158E0,8.3263206E-1,1.1144383E-1,7.4348315E-3,9.561217E-2,1.18189685E-1,-1.7230386E-1,-4.2696543E-2,1.2335968E-1,-8.4323965E-2,1.0696711E-1,-1.03419356E-1,-1.1949619E-1,1.09043114E-1,1.6223919E-2,1.1649281E-1,-3.223692E-2,1.0898544E-1,-1.5213332E-1,-6.3559346E-2,1.4708868E-3,9.309768E-2],"categories":[],"categories_nodes":[],"categories_segments":[],"categories_sizes":[],"default_left":[0,0,0,0,0,0,0,0,0,0,0,0,0,0,0,0,0,0,0,0,0,0,0,0,0,0,0,0,0,0,0,0,0,0,0,0,0,0,0,0,0,0,0,0,0,0,0,0,0,0,0,0,0,0,0,0,0,0,0,0,0],"id":12,"left_children":[1,3,5,7,9,11,13,15,17,19,21,23,25,-1,27,29,31,33,35,-1,-1,37,39,-1,-1,-1,-1,-1,-1,41,43,45,47,-1,-1,49,51,53,55,57,59,-1,-1,-1,-1,-1,-1,-1,-1,-1,-1,-1,-1,-1,-1,-1,-1,-1,-1,-1,-1],"loss_changes":[7.758821E2,4.9044824E2,1.3978134E1,1.4667471E3,1.09168945E2,9.627424E0,2.7022705E0,8.016919E1,1.9287692E2,9.062532E0,4.646875E1,2.3543277E0,2.8419724E0,0E0,5.168299E0,5.9000732E1,2.4513936E2,1.8057095E1,4.9182556E1,0E0,0E0,1.8445312E1,3.724113E1,0E0,0E0,0E0,0E0,0E0,0E0,1.0876257E2,3.017456E0,1.5541412E1,8.217757E1,0E0,0E0,3.743414E1,3.456659E1,1.1509766E1,2.445641E1,6.98679E-1,1.473135E0,0E0,0E0,0E0,0E0,0E0,0E0,0E0,0E0,0E0,0E0,0E0,0E0,0E0,0E0,0E0,0E0,0E0,0E0,0E0,0E0],"parents":[2147483647,0,0,1,1,2,2,3,3,4,4,5,5,6,6,7,7,8,8,9,9,10,10,11,11,12,12,14,14,15,15,16,16,17,17,18,18,21,21,22,22,29,29,30,30,31,31,32,32,35,35,36,36,37,37,38,38,39,39,40,40],"right_children":[2,4,6,8,10,12,14,16,18,20,22,24,26,-1,28,30,32,34,36,-1,-1,38,40,-1,-1,-1,-1,-1,-1,42,44,46,48,-1,-1,50,52,54,56,58,60,-1,-1,-1,-1,-1,-1,-1,-1,-1,-1,-1,-1,-1,-1,-1,-1,-1,-1,-1,-1],"split_conditions":[5.818E3,2.14E2,4.430772E0,7.142E-3,8.537E-3,1.9E1,4.2653E4,7.6E1,3.163E3,2.4E2,3.67E3,3.067E-1,6.74158E-1,-1.15979925E-1,5.3587E4,3.4045E4,1.09E2,1.87E2,1.54E2,6.730903E-2,-1.3043518E-1,1.32E3,3.921196E0,3.041136E-2,-9.947444E-2,-2.8436512E-2,1.19045354E-1,1.048063E-1,-8.917614E-2,2.0618557E3,6E-6,9E1,1.55E2,1.1646866E-1,-9.337596E-2,9.35E-3,9.07137E-1,3.65E2,1.957807E0,6.198E3,1.43685E-1,1.1144383E-1,7.4348315E-3,9.561217E-2,1.18189685E-1,-1.7230386E-1,-4.2696543E-2,1.2335968E-1,-8.4323965E-2,1.0696711E-1,-1.03419356E-1,-1.1949619E-1,1.09043114E-1,1.6223919E-2,1.1649281E-1,-3.223692E-2,1.0898544E-1,-1.5213332E-1,-6.3559346E-2,1.4708868E-3,9.309768E-2],"split_indices":[12,12,9,4,15,10,0,12,0,3,13,16,16,0,0,0,12,13,3,0,0,12,14,0,0,0,0,0,0,14,7,12,12,0,0,7,9,0,16,13,4,0,0,0,0,0,0,0,0,0,0,0,0,0,0,0,0,0,0,0,0],"split_type":[0,0,0,0,0,0,0,0,0,0,0,0,0,0,0,0,0,0,0,0,0,0,0,0,0,0,0,0,0,0,0,0,0,0,0,0,0,0,0,0,0,0,0,0,0,0,0,0,0,0,0,0,0,0,0,0,0,0,0,0,0],"sum_hessian":[5.968532E3,5.759877E3,2.0865521E2,2.3656135E3,3.3942634E3,1.2925529E1,1.9572969E2,1.8159535E3,5.4966E2,2.1211773E1,3.3730515E3,7.406188E0,5.5193405E0,1.9157689E2,4.1528006E0,1.5849473E3,2.310062E2,4.873804E1,5.009219E2,1.9991255E0,1.9212646E1,3.343001E3,3.0050768E1,1.2409198E0,6.165268E0,1.2999593E0,4.2193813E0,1.1193805E0,3.0334198E0,4.2945978E2,1.1554875E3,5.423444E1,1.7677176E2,4.4972992E1,3.7650514E0,3.209834E1,4.6882358E2,3.293451E3,4.9549965E1,1.2566749E1,1.748402E1,2.6904596E2,1.604138E2,9.2303406E1,1.0631841E3,4.1370773E1,1.2863666E1,1.5579451E2,2.097725E1,1.7532137E1,1.4566203E1,4.628433E2,5.9802656E0,1.183958E1,3.2816113E3,1.9769293E1,2.9780674E1,9.214397E0,3.3523505E0,1.9999776E0,1.5484042E1],"tree_param":{"num_deleted":"0","num_feature":"17","num_nodes":"61","size_leaf_vector":"0"}},{"base_weights":[7.999833E-1,8.6809987E-1,-1.0407565E0,5.2731246E-1,1.1087402E0,-1.1071882E0,1.6031337E-1,9.5925856E-1,-8.136174E-1,-1.0558028E0,1.1217258E0,5.028507E-1,-1.1336668E-1,8.784123E-1,-8.239218E-2,9.750559E-1,-9.2673707E-1,-1.1454406E0,1.0276474E0,5.707654E-2,-1.2515754E-1,1.1323144E0,-1.0328105E-1,2.261107E-3,7.764501E-2,1.7744781E-2,1.0846473E-1,-1.7589629E-1,9.848392E-1,-1.4063348E0,9.397964E-2,3.0879602E-1,-1.1781583E0,1.0922942E0,-9.044927E-2,-8.054404E-3,1.1369466E0,-1.4105393E-1,7.34505E-1,-9.999669E-2,9.971732E-2,-1.7258362E-1,-8.260251E-2,1.0311414E-1,-9.2013136E-2,-1.1813666E-1,1.0478047E-2,1.13724925E-1,-6.2648594E-2,-2.4821134E-1,1.08341955E-1,1.1453382E-1,5.552094E-2,1.3732848E-3,8.274379E-2],"categories":[],"categories_nodes":[],"categories_segments":[],"categories_sizes":[],"default_left":[0,0,0,0,0,0,0,0,0,0,0,0,0,0,0,0,0,0,0,0,0,0,0,0,0,0,0,0,0,0,0,0,0,0,0,0,0,0,0,0,0,0,0,0,0,0,0,0,0,0,0,0,0,0,0],"id":13,"left_children":[1,3,5,7,9,11,13,15,17,19,21,23,-1,25,-1,27,29,31,33,-1,-1,35,37,-1,-1,-1,-1,-1,39,41,-1,43,45,47,-1,49,51,-1,53,-1,-1,-1,-1,-1,-1,-1,-1,-1,-1,-1,-1,-1,-1,-1,-1],"loss_changes":[6.9058374E2,4.344441E2,1.5875015E1,1.2735559E3,8.855322E1,8.523087E0,8.628941E0,5.0435913E1,3.2861502E2,6.78109E0,4.0201416E1,4.7006017E-1,0E0,8.123503E-1,0E0,4.584436E1,1.4142904E1,2.199176E1,1.1275482E1,0E0,0E0,1.6193848E1,3.1043623E1,0E0,0E0,0E0,0E0,0E0,4.12417E1,7.613621E-1,0E0,1.0530926E1,1.9545288E0,6.905319E0,0E0,3.8841938E1,1.4260498E1,0E0,1.151166E0,0E0,0E0,0E0,0E0,0E0,0E0,0E0,0E0,0E0,0E0,0E0,0E0,0E0,0E0,0E0,0E0],"parents":[2147483647,0,0,1,1,2,2,3,3,4,4,5,5,6,6,7,7,8,8,9,9,10,10,11,11,13,13,15,15,16,16,17,17,18,18,21,21,22,22,28,28,29,29,31,31,32,32,33,33,35,35,36,36,38,38],"right_children":[2,4,6,8,10,12,14,16,18,20,22,24,-1,26,-1,28,30,32,34,-1,-1,36,38,-1,-1,-1,-1,-1,40,42,-1,44,46,48,-1,50,52,-1,54,-1,-1,-1,-1,-1,-1,-1,-1,-1,-1,-1,-1,-1,-1,-1,-1],"split_conditions":[4.87E3,2.14E2,4.1464E4,1.72E2,8.537E-3,1.326954E0,5.7673E4,9.419E-3,4.49406E-1,2.4E2,3.67E3,9.449E3,-1.1336668E-1,9.07137E-1,-8.239218E-2,6E1,1.55108E-1,3.163E3,4.28E2,5.707654E-2,-1.2515754E-1,3.65E2,3.921196E0,2.261107E-3,7.764501E-2,1.7744781E-2,1.0846473E-1,-1.7589629E-1,1.38E2,3.4045E4,9.397964E-2,2.03E2,2.0618557E3,6.0151E4,-9.044927E-2,4E0,1.32E3,-1.4105393E-1,1.36945E-1,-9.999669E-2,9.971732E-2,-1.7258362E-1,-8.260251E-2,1.0311414E-1,-9.2013136E-2,-1.1813666E-1,1.0478047E-2,1.13724925E-1,-6.2648594E-2,-2.4821134E-1,1.08341955E-1,1.1453382E-1,5.552094E-2,1.3732848E-3,8.274379E-2],"split_indices":[12,12,0,3,15,7,0,5,15,3,13,12,0,9,0,12,5,0,3,0,0,0,14,0,0,0,0,0,0,0,0,3,14,0,0,2,12,0,5,0,0,0,0,0,0,0,0,0,0,0,0,0,0,0,0],"split_type":[0,0,0,0,0,0,0,0,0,0,0,0,0,0,0,0,0,0,0,0,0,0,0,0,0,0,0,0,0,0,0,0,0,0,0,0,0,0,0,0,0,0,0,0,0,0,0,0,0,0,0,0,0,0,0],"sum_hessian":[5.4995063E3,5.3037686E3,1.957374E2,2.1964358E3,3.107333E3,1.8555257E2,1.0184836E1,1.6615083E3,5.3492755E2,1.8051575E1,3.0892812E3,2.711123E0,1.8284145E2,5.9507103E0,4.234126E0,1.6481859E3,1.3322436E1,4.535661E2,8.136141E1,1.7334902E0,1.6318085E1,3.0628823E3,2.6399105E1,1.3769146E0,1.3342084E0,1.7757149E0,4.1749954E0,5.239272E0,1.6429465E3,1.0795207E1,2.5272293E0,9.794226E0,4.4377188E2,7.9147896E1,2.213515E0,1.2388076E1,3.0504941E3,1.0043638E1,1.6355467E1,9.652011E0,1.6332946E3,5.689012E0,5.1061945E0,6.2698455E0,3.5243804E0,4.4274387E2,1.0280093E0,7.746025E1,1.6876459E0,3.4021904E0,8.985885E0,3.0061614E3,4.433286E1,1.9990371E0,1.4356429E1],"tree_param":{"num_deleted":"0","num_feature":"17","num_nodes":"55","size_leaf_vector":"0"}},{"base_weights":[7.784213E-1,-5.292861E-1,9.4192773E-1,7.3515624E-1,-1.0939227E0,1.0218542E0,-7.737755E-1,-1.1306609E-1,1.1514361E-1,9.481537E-2,-1.1170118E0,8.431419E-1,1.1170845E0,7.6829445E-1,-9.64846E-1,-1.1236027E0,2.061375E-2,9.8717046E-1,3.126046E-2,1.137287E-1,8.2930297E-1,-6.260511E-2,9.523209E-1,8.680229E-2,-1.0839616E0,-4.8812404E-1,-1.1294634E0,1.8935196E-1,1.1316313E0,9.4206226E-1,-1.2571344E0,-1.756951E-1,9.682476E-1,1.0818481E0,-7.328122E-2,-1.0294554E0,7.1247613E-1,-1.1298225E0,-4.408437E-1,-1.9283814E-2,-7.396786E-2,-1.1334616E-1,-5.1065095E-2,-3.4216172E-1,1.1841973E-1,9.01617E-2,1.14939265E-1,1.1558177E-1,-9.427765E-2,-1.5513785E-1,1.11203626E-1,1.1004164E-1,-7.8772165E-2,1.8588906E-2,1.1257877E-1,-1.2214275E-1,-2.292755E-2,1.1167761E-1,-6.052783E-2,7.323892E-4,-1.13801934E-1,-8.7158434E-2,7.6445386E-2],"categories":[],"categories_nodes":[],"categories_segments":[],"categories_sizes":[],"default_left":[0,0,0,0,0,0,0,0,0,0,0,0,0,0,0,0,0,0,0,0,0,0,0,0,0,0,0,0,0,0,0,0,0,0,0,0,0,0,0,0,0,0,0,0,0,0,0,0,0,0,0,0,0,0,0,0,0,0,0,0,0,0,0],"id":14,"left_children":[1,3,5,7,9,11,13,-1,-1,-1,15,17,19,21,23,25,-1,27,29,-1,31,-1,33,35,37,39,41,43,45,47,49,-1,51,53,-1,55,57,59,61,-1,-1,-1,-1,-1,-1,-1,-1,-1,-1,-1,-1,-1,-1,-1,-1,-1,-1,-1,-1,-1,-1,-1,-1],"loss_changes":[1.0930061E3,4.0668213E2,6.2363745E2,1.3807352E2,1.960791E1,7.292383E1,6.047786E1,0E0,0E0,0E0,3.6280518E0,1.7687622E2,1.5500732E1,6.474309E0,2.2746689E1,8.925781E-1,0E0,1.4787463E2,2.6988684E2,0E0,6.969803E1,0E0,5.296528E0,1.4229724E1,4.294983E0,2.513379E-1,3.6972046E-1,7.160165E2,3.4074707E0,5.5367455E1,6.813313E1,0E0,4.26933E1,5.6095695E-1,0E0,8.489976E-1,7.5882154E0,1.4162903E0,7.133627E0,0E0,0E0,0E0,0E0,0E0,0E0,0E0,0E0,0E0,0E0,0E0,0E0,0E0,0E0,0E0,0E0,0E0,0E0,0E0,0E0,0E0,0E0,0E0,0E0],"parents":[2147483647,0,0,1,1,2,2,3,3,4,4,5,5,6,6,10,10,11,11,12,12,13,13,14,14,15,15,17,17,18,18,20,20,22,22,23,23,24,24,25,25,26,26,27,27,28,28,29,29,30,30,32,32,33,33,35,35,36,36,37,37,38,38],"right_children":[2,4,6,8,10,12,14,-1,-1,-1,16,18,20,22,24,26,-1,28,30,-1,32,-1,34,36,38,40,42,44,46,48,50,-1,52,54,-1,56,58,60,62,-1,-1,-1,-1,-1,-1,-1,-1,-1,-1,-1,-1,-1,-1,-1,-1,-1,-1,-1,-1,-1,-1,-1,-1],"split_conditions":[8E1,5.3E1,1.32E3,1.38E2,6.4E1,3.8769E-2,1.014811E0,-1.1306609E-1,1.1514361E-1,9.481537E-2,9.0263565E1,7.6E1,1.23E2,2.0995623E1,3.327E-3,3.228E-3,2.061375E-2,1.06E2,1.23E2,1.137287E-1,3E0,-6.260511E-2,5.8317E4,3.7139E-2,4.1464E4,5.5838E4,5E0,6.4E1,4E-6,7E-6,5.355E3,-1.756951E-1,5.07926E0,3.3626E4,-7.328122E-2,4.8598E-2,1.4935366E1,1.61424E-1,9.87201E-1,-1.9283814E-2,-7.396786E-2,-1.1334616E-1,-5.1065095E-2,-3.4216172E-1,1.1841973E-1,9.01617E-2,1.14939265E-1,1.1558177E-1,-9.427765E-2,-1.5513785E-1,1.11203626E-1,1.1004164E-1,-7.8772165E-2,1.8588906E-2,1.1257877E-1,-1.2214275E-1,-2.292755E-2,1.1167761E-1,-6.052783E-2,7.323892E-4,-1.13801934E-1,-8.7158434E-2,7.6445386E-2],"split_indices":[1,1,12,0,12,15,4,0,0,0,16,12,1,15,8,4,0,1,1,0,2,0,0,16,0,0,2,12,8,8,1,0,4,0,0,15,7,5,15,0,0,0,0,0,0,0,0,0,0,0,0,0,0,0,0,0,0,0,0,0,0,0,0],"split_type":[0,0,0,0,0,0,0,0,0,0,0,0,0,0,0,0,0,0,0,0,0,0,0,0,0,0,0,0,0,0,0,0,0,0,0,0,0,0,0,0,0,0,0,0,0,0,0,0,0,0,0,0,0,0,0,0,0,0,0,0,0,0,0],"sum_hessian":[5.1085063E3,5.67496E2,4.5410103E3,1.7509276E2,3.9240323E2,4.3392686E3,2.0174152E2,3.1625834E1,1.4346693E2,3.939229E0,3.88464E2,1.5118796E3,2.8273892E3,2.1907988E1,1.7983353E2,3.866886E2,1.7753878E0,1.2838989E3,2.2798071E2,2.6391653E3,1.8822388E2,2.2742574E0,1.963373E1,1.8324177E1,1.6150935E2,4.303898E0,3.823847E2,1.9718877E2,1.0867102E3,1.3371951E2,9.42612E1,9.002899E0,1.7922098E2,1.856476E1,1.0689707E0,6.349949E0,1.1974228E1,1.5005228E2,1.1457066E1,2.7925103E0,1.5113876E0,3.7910364E2,3.2810526E0,4.206543E1,1.5512334E2,8.160973E1,1.00510046E3,1.2044669E2,1.3272819E1,8.4154625E1,1.0106576E1,1.6702278E2,1.2198198E1,1.1124153E0,1.7452345E1,4.6967144E0,1.6532347E0,9.2796545E0,2.6945734E0,1.0746307E0,1.4897765E2,8.644594E0,2.812471E0],"tree_param":{"num_deleted":"0","num_feature":"17","num_nodes":"63","size_leaf_vector":"0"}},{"base_weights":[7.620794E-1,-5.134865E-1,9.2117244E-1,1.1356991E-1,-9.442331E-1,9.996321E-1,-7.685102E-1,-1.067578E0,1.0551645E0,8.1223726E-1,1.1007426E0,6.511967E-2,-1.0991926E0,-1.0940305E0,3.1247687E-1,1.0862359E-1,2.0330971E-2,8.967658E-1,-6.787224E-1,-1.3117033E-1,1.1065608E0,3.9922732E-1,-1.042186E0,-1.1253083E-1,-2.192407E-1,-1.1035012E0,-4.326574E-1,9.6080504E-2,-7.1169995E-2,5.333036E-1,1.0458591E0,-1.1051587E0,8.8573474E-1,1.1111723E0,-3.1142682E-1,-1.8147448E-1,1.2147093E-1,-1.1578982E-1,-3.65861E-3,7.774454E-2,-8.358181E-2,-6.1499465E-2,-1.1171422E-1,7.071598E-2,-9.219465E-2,1.00535564E-1,-5.1560875E-2,1.1102416E-1,-8.044838E-2,-1.1921733E-1,7.656188E-2,9.732223E-2,-2.1268448E-2,5.2981633E-3,1.1156898E-1,8.22794E-2,-1.413386E-1,8.5656635E-2,-1.24030076E-1],"categories":[],"categories_nodes":[],"categories_segments":[],"categories_sizes":[],"default_left":[0,0,0,0,0,0,0,0,0,0,0,0,0,0,0,0,0,0,0,0,0,0,0,0,0,0,0,0,0,0,0,0,0,0,0,0,0,0,0,0,0,0,0,0,0,0,0,0,0,0,0,0,0,0,0,0,0,0,0],"id":15,"left_children":[1,3,5,-1,7,9,11,13,15,17,19,21,23,25,27,-1,-1,29,31,-1,33,35,37,-1,39,41,43,-1,-1,45,47,49,51,53,55,57,-1,-1,-1,-1,-1,-1,-1,-1,-1,-1,-1,-1,-1,-1,-1,-1,-1,-1,-1,-1,-1,-1,-1],"loss_changes":[9.550969E2,3.720999E2,5.552927E2,0E0,1.0339157E2,7.485181E1,5.139361E1,1.461853E1,4.3022728E-1,1.7765906E2,3.7858643E1,2.0327417E1,2.8178253E0,1.9274292E0,6.0840855E0,0E0,0E0,7.15094E1,5.1643105E1,0E0,1.7269775E1,2.0141956E1,1.441472E0,0E0,3.7751033E0,1.8310242E0,4.5922923E0,0E0,0E0,1.930714E2,1.13115234E2,1.0699524E1,1.8234968E0,1.2273926E1,1.2625032E1,2.9024988E1,0E0,0E0,0E0,0E0,0E0,0E0,0E0,0E0,0E0,0E0,0E0,0E0,0E0,0E0,0E0,0E0,0E0,0E0,0E0,0E0,0E0,0E0,0E0],"parents":[2147483647,0,0,1,1,2,2,4,4,5,5,6,6,7,7,8,8,9,9,10,10,11,11,12,12,13,13,14,14,17,17,18,18,20,20,21,21,22,22,24,24,25,25,26,26,29,29,30,30,31,31,32,32,33,33,34,34,35,35],"right_children":[2,4,6,-1,8,10,12,14,16,18,20,22,24,26,28,-1,-1,30,32,-1,34,36,38,-1,40,42,44,-1,-1,46,48,50,52,54,56,58,-1,-1,-1,-1,-1,-1,-1,-1,-1,-1,-1,-1,-1,-1,-1,-1,-1,-1,-1,-1,-1,-1,-1],"split_conditions":[8E1,6.4E1,1.477E3,1.1356991E-1,3E0,3.8769E-2,2.496742E0,5.7041813E1,5.3587E4,1.72E2,1.72E2,8.402E3,4.1464E4,2.571972E2,1.32E2,1.0862359E-1,2.0330971E-2,3.4045E4,4.6E-5,-1.3117033E-1,4.058E3,4.45E2,2.0642E4,-1.1253083E-1,8.9178766E2,1.54E2,4E0,9.6080504E-2,-7.1169995E-2,1E0,7.6E1,5.355E3,1.7E1,3.65E2,1.014811E0,1.06E2,1.2147093E-1,-1.1578982E-1,-3.65861E-3,7.774454E-2,-8.358181E-2,-6.1499465E-2,-1.1171422E-1,7.071598E-2,-9.219465E-2,1.00535564E-1,-5.1560875E-2,1.1102416E-1,-8.044838E-2,-1.1921733E-1,7.656188E-2,9.732223E-2,-2.1268448E-2,5.2981633E-3,1.1156898E-1,8.22794E-2,-1.413386E-1,8.5656635E-2,-1.24030076E-1],"split_indices":[1,12,12,0,11,15,5,15,0,3,3,1,0,4,12,0,0,0,6,0,3,1,12,0,4,3,2,0,0,11,12,1,2,0,4,1,0,0,0,0,0,0,0,0,0,0,0,0,0,0,0,0,0,0,0,0,0,0,0],"split_type":[0,0,0,0,0,0,0,0,0,0,0,0,0,0,0,0,0,0,0,0,0,0,0,0,0,0,0,0,0,0,0,0,0,0,0,0,0,0,0,0,0,0,0,0,0,0,0,0,0,0,0,0,0,0,0,0,0,0,0],"sum_hessian":[4.7031167E3,5.212937E2,4.1818228E3,1.0761915E2,4.1367453E2,3.9966487E3,1.8517424E2,3.900764E2,2.359815E1,1.4038433E3,2.5928054E3,5.2820377E1,1.3235387E2,3.8294345E2,7.132921E0,2.250224E1,1.0959108E0,1.328901E3,7.494227E1,5.698204E0,2.5871072E3,4.106829E1,1.1752086E1,1.2826822E2,4.085642E0,3.7687814E2,6.0653195E0,4.405813E0,2.727108E0,3.8788513E2,9.4101587E2,5.9120827E1,1.582144E1,2.5789365E3,8.170675E0,2.4441236E1,1.6627054E1,1.0403524E1,1.3485612E0,1.4617862E0,2.6238556E0,1.1489891E1,3.6538824E2,1.6879342E0,4.3773856E0,2.6752835E2,1.20356804E2,9.097608E2,3.1255068E1,5.68398E1,2.2810252E0,1.475982E1,1.06162E0,1.1016693E1,2.5679197E3,4.151238E0,4.019437E0,1.2438215E1,1.2003021E1],"tree_param":{"num_deleted":"0","num_feature":"17","num_nodes":"59","size_leaf_vector":"0"}},{"base_weights":[7.510592E-1,-5.0738055E-1,9.0533763E-1,7.34913E-1,-1.064325E0,9.746812E-1,-9.0416896E-1,-1.0910169E-1,1.1186304E-1,8.97303E-2,-1.0886241E0,7.857529E-1,1.0765314E0,1.4340572E-1,-1.0581806E0,-1.1013981E0,-1.9008799E-1,8.7129366E-1,-6.8642884E-1,1.0866522E0,-6.3574445E-1,-4.4147485E-1,8.631174E-1,-1.0902387E0,-2.5687003E-1,-1.105083E0,-1.821165E-3,7.197983E-2,-5.657708E-1,5.2717143E-1,1.0164481E0,-1.1039605E0,8.0710965E-1,-1.1885976E-1,1.0910867E0,-1.199585E-1,6.004418E-1,-8.106292E-1,1.08033374E-1,-1.2541122E-2,1.0269865E-1,-3.7871003E-2,-1.0965443E-1,4.9789417E-1,-8.4348045E-2,-2.8772697E-2,-1.1076454E-1,-8.2185104E-2,1.6929612E-2,9.282971E-2,-8.8308245E-2,1.0915547E-1,-7.560994E-2,-1.1818942E-1,5.084647E-2,-7.9181254E-2,1.0137339E-1,-1.6634768E-2,1.0961854E-1,9.168828E-2,-3.783819E-2,7.978812E-3,-9.829428E-2,-3.7690964E-2,1.24390446E-1],"categories":[],"categories_nodes":[],"categories_segments":[],"categories_sizes":[],"default_left":[0,0,0,0,0,0,0,0,0,0,0,0,0,0,0,0,0,0,0,0,0,0,0,0,0,0,0,0,0,0,0,0,0,0,0,0,0,0,0,0,0,0,0,0,0,0,0,0,0,0,0,0,0,0,0,0,0,0,0,0,0,0,0,0,0],"id":16,"left_children":[1,3,5,7,9,11,13,-1,-1,-1,15,17,19,21,23,25,27,29,31,33,35,37,39,41,43,45,-1,-1,47,49,51,53,55,-1,57,-1,59,61,-1,-1,-1,-1,-1,63,-1,-1,-1,-1,-1,-1,-1,-1,-1,-1,-1,-1,-1,-1,-1,-1,-1,-1,-1,-1,-1],"loss_changes":[8.4217554E2,3.2880286E2,4.8551245E2,1.04456436E2,1.6599274E1,7.074072E1,2.3233856E1,0E0,0E0,0E0,3.5116577E0,1.6516248E2,4.2531494E1,8.470754E0,2.9271088E0,1.2548828E0,2.373722E0,6.117639E1,4.598954E1,2.5518799E1,1.1048588E1,7.203483E0,1.5792928E0,1.2193298E-1,3.1255798E0,3.4805298E-1,0E0,0E0,1.0109668E0,2.0933392E2,1.1636249E2,7.7563477E0,6.21362E0,0E0,1.5546631E1,0E0,1.9910352E0,1.5569024E0,0E0,0E0,0E0,0E0,0E0,2.6232696E0,0E0,0E0,0E0,0E0,0E0,0E0,0E0,0E0,0E0,0E0,0E0,0E0,0E0,0E0,0E0,0E0,0E0,0E0,0E0,0E0,0E0],"parents":[2147483647,0,0,1,1,2,2,3,3,4,4,5,5,6,6,10,10,11,11,12,12,13,13,14,14,15,15,16,16,17,17,18,18,19,19,20,20,21,21,22,22,23,23,24,24,25,25,28,28,29,29,30,30,31,31,32,32,34,34,36,36,37,37,43,43],"right_children":[2,4,6,8,10,12,14,-1,-1,-1,16,18,20,22,24,26,28,30,32,34,36,38,40,42,44,46,-1,-1,48,50,52,54,56,-1,58,-1,60,62,-1,-1,-1,-1,-1,64,-1,-1,-1,-1,-1,-1,-1,-1,-1,-1,-1,-1,-1,-1,-1,-1,-1,-1,-1,-1,-1],"split_conditions":[8E1,5.3E1,6.689E3,1.38E2,6.4E1,3.8769E-2,1.382404E0,-1.0910169E-1,1.1186304E-1,8.97303E-2,2.334267E2,1.72E2,8.402E3,3.8023888E1,4.1464E4,4E0,2.03E2,3.4045E4,4.6E-5,1.54E2,9.158E3,2.58E4,1.49088E-1,2.981335E0,4.998E3,1.476E3,-1.821165E-3,7.197983E-2,3.826E-3,2.0618557E3,7.6E1,5.355E3,1.595E-3,-1.1885976E-1,3.65E2,-1.199585E-1,3.03031E0,1.84646E-1,1.08033374E-1,-1.2541122E-2,1.0269865E-1,-3.7871003E-2,-1.0965443E-1,2.019762E0,-8.4348045E-2,-2.8772697E-2,-1.1076454E-1,-8.2185104E-2,1.6929612E-2,9.282971E-2,-8.8308245E-2,1.0915547E-1,-7.560994E-2,-1.1818942E-1,5.084647E-2,-7.9181254E-2,1.0137339E-1,-1.6634768E-2,1.0961854E-1,9.168828E-2,-3.783819E-2,7.978812E-3,-9.829428E-2,-3.7690964E-2,1.24390446E-1],"split_indices":[1,1,3,0,12,15,5,0,0,0,14,3,1,14,0,11,3,0,6,3,1,12,8,9,1,0,0,0,5,14,12,1,16,0,0,0,14,15,0,0,0,0,0,5,0,0,0,0,0,0,0,0,0,0,0,0,0,0,0,0,0,0,0,0,0],"split_type":[0,0,0,0,0,0,0,0,0,0,0,0,0,0,0,0,0,0,0,0,0,0,0,0,0,0,0,0,0,0,0,0,0,0,0,0,0,0,0,0,0,0,0,0,0,0,0,0,0,0,0,0,0,0,0,0,0,0,0,0,0,0,0,0,0],"sum_hessian":[4.3343867E3,4.730947E2,3.861292E3,1.4634502E2,3.2674966E2,3.719226E3,1.4206613E2,2.5093521E1,1.21251495E2,3.5584068E0,3.2319128E2,1.3057759E3,2.41345E3,1.8217955E1,1.2384817E2,3.1843845E2,4.752827E0,1.2344563E3,7.131967E1,2.399632E3,1.381798E1,1.0263676E1,7.9542794E0,1.18737274E2,5.1108985E0,3.1733868E2,1.0997574E0,1.1212467E0,3.6315804E0,3.6760214E2,8.6685406E2,5.5941563E1,1.5378108E1,4.1485624E0,2.3954836E3,9.509969E0,4.308011E0,8.636091E0,1.6275839E0,1.1644574E0,6.789822E0,1.579366E0,1.17157906E2,2.3012383E0,2.8096602E0,1.3457841E0,3.159929E2,2.6057389E0,1.0258415E0,2.8646362E2,8.1138535E1,8.3198535E2,3.4868713E1,5.361709E1,2.3244748E0,1.4357426E0,1.3942365E1,9.546081E0,2.3859375E3,3.303359E0,1.0046523E0,1.4873399E0,7.1487517E0,1.2869139E0,1.0143244E0],"tree_param":{"num_deleted":"0","num_feature":"17","num_nodes":"65","size_leaf_vector":"0"}},{"base_weights":[7.34163E-1,-5.036036E-1,8.8499343E-1,7.202713E-1,-1.0519607E0,9.6102005E-1,-7.624527E-1,-1.0732751E-1,1.10454634E-1,5.826606E-1,-1.0799457E0,7.6065254E-1,1.0715212E0,1.2244365E-2,-1.0740646E0,-2.4315706E-2,9.1879986E-2,-1.0928078E0,-6.33669E-2,9.059807E-1,-2.2477262E-4,-1.1935445E-1,1.0774918E0,3.5011625E-1,-9.8523504E-1,-1.0817341E-1,-3.2699157E-2,-1.0951797E-1,-2.3103377E-2,7.201757E-2,-5.955549E-2,5.778525E-2,1.0808411E0,8.945174E-1,-1.1435068E0,1.0827019E0,-2.9088703E-1,-2.7361065E-1,1.17156856E-1,1.0006585E-2,-1.1000766E-1,-2.5410226E-1,1.1325192E-1,7.033629E-2,1.1103519E-1,1.0990347E-1,-8.555477E-2,-1.4062642E-1,9.564493E-2,1.0973511E-1,8.592377E-2,9.57586E-2,-1.4036153E-1,7.28635E-2,-1.2368827E-1],"categories":[],"categories_nodes":[],"categories_segments":[],"categories_sizes":[],"default_left":[0,0,0,0,0,0,0,0,0,0,0,0,0,0,0,0,0,0,0,0,0,0,0,0,0,0,0,0,0,0,0,0,0,0,0,0,0,0,0,0,0,0,0,0,0,0,0,0,0,0,0,0,0,0,0],"id":17,"left_children":[1,3,5,7,9,11,13,-1,-1,15,17,19,21,23,25,-1,-1,27,29,31,33,-1,35,37,39,-1,-1,-1,-1,-1,-1,41,43,45,47,49,51,53,-1,-1,-1,-1,-1,-1,-1,-1,-1,-1,-1,-1,-1,-1,-1,-1,-1],"loss_changes":[7.4384814E2,2.914604E2,4.4534424E2,9.3967865E1,1.4331665E1,7.4323E1,3.79494E1,0E0,0E0,1.8032854E0,3.7859497E0,1.3377057E2,3.0833984E1,1.5870521E1,2.8845215E-1,0E0,0E0,3.420105E-1,2.4077234E0,1.505882E2,2.0050417E2,0E0,1.585498E1,1.8329576E1,1.5955286E0,0E0,0E0,0E0,0E0,0E0,0E0,4.907272E2,8.599487E0,4.0295372E1,4.8826607E1,6.1660156E0,1.3924805E1,2.0972326E1,0E0,0E0,0E0,0E0,0E0,0E0,0E0,0E0,0E0,0E0,0E0,0E0,0E0,0E0,0E0,0E0,0E0],"parents":[2147483647,0,0,1,1,2,2,3,3,4,4,5,5,6,6,9,9,10,10,11,11,12,12,13,13,14,14,17,17,18,18,19,19,20,20,22,22,23,23,24,24,31,31,32,32,33,33,34,34,35,35,36,36,37,37],"right_children":[2,4,6,8,10,12,14,-1,-1,16,18,20,22,24,26,-1,-1,28,30,32,34,-1,36,38,40,-1,-1,-1,-1,-1,-1,42,44,46,48,50,52,54,-1,-1,-1,-1,-1,-1,-1,-1,-1,-1,-1,-1,-1,-1,-1,-1,-1],"split_conditions":[8E1,5.3E1,1.477E3,1E0,1.54E2,3.8769E-2,2.496742E0,-1.0732751E-1,1.10454634E-1,8E-6,1.383502E0,8.3E1,1.72E2,8.402E3,7.997919E1,-2.4315706E-2,9.1879986E-2,1.0253E-2,1.6162923E2,1.06E2,1.06E2,-1.1935445E-1,4.058E3,4.45E2,3.724E-3,-1.0817341E-1,-3.2699157E-2,-1.0951797E-1,-2.3103377E-2,7.201757E-2,-5.955549E-2,6.4E1,4E-6,7E-6,5.355E3,1.23E2,1.014811E0,1.06E2,1.17156856E-1,1.0006585E-2,-1.1000766E-1,-2.5410226E-1,1.1325192E-1,7.033629E-2,1.1103519E-1,1.0990347E-1,-8.555477E-2,-1.4062642E-1,9.564493E-2,1.0973511E-1,8.592377E-2,9.57586E-2,-1.4036153E-1,7.28635E-2,-1.2368827E-1],"split_indices":[1,1,12,1,3,15,5,0,0,4,15,12,3,1,16,0,0,16,15,1,1,0,3,1,8,0,0,0,0,0,0,12,8,8,1,1,4,1,0,0,0,0,0,0,0,0,0,0,0,0,0,0,0,0,0],"split_type":[0,0,0,0,0,0,0,0,0,0,0,0,0,0,0,0,0,0,0,0,0,0,0,0,0,0,0,0,0,0,0,0,0,0,0,0,0,0,0,0,0,0,0,0,0,0,0,0,0,0,0,0,0,0,0],"sum_hessian":[3.9809548E3,4.3216016E2,3.5487947E3,1.3362032E2,2.9853983E2,3.3926467E3,1.5614784E2,2.3260843E1,1.10359474E2,4.691396E0,2.9384842E2,1.20875E3,2.1838967E3,4.5067184E1,1.1108065E2,1.4371827E0,3.2542136E0,2.9010297E2,3.7454612E0,1.0147427E3,1.9400731E2,5.218527E0,2.1786782E3,3.414903E1,1.0918154E1,1.0950847E2,1.572187E0,2.890366E2,1.0663788E0,1.3720906E0,2.3733706E0,1.7366692E2,8.4107574E2,1.08955444E2,8.5051865E1,2.1706223E3,8.056018E0,1.9789684E1,1.4359345E1,1.0570683E0,9.861086E0,5.0408966E1,1.2325796E2,6.278719E1,7.782886E2,9.788799E1,1.1067445E1,7.588685E1,9.165015E0,2.0334124E3,1.3720998E2,3.8621447E0,4.193873E0,9.818017E0,9.971667E0],"tree_param":{"num_deleted":"0","num_feature":"17","num_nodes":"55","size_leaf_vector":"0"}},{"base_weights":[7.2533506E-1,-4.9265948E-1,8.733536E-1,7.0978403E-1,-1.0378847E0,9.440386E-1,-7.658236E-1,-1.0597696E-1,1.0916579E-1,8.700572E-2,-1.064005E0,7.467143E-1,1.0529462E0,-6.918405E-3,-1.0463468E0,-1.0785924E0,1.8494334E-2,8.8921887E-1,1.1909101E-2,1.0647799E0,-5.448755E-1,-3.8581505E-1,6.1306465E-1,-1.0728873E-1,-1.3516344E-1,-1.08301714E-1,9.219426E-4,8.059766E-2,-8.381377E-2,4.890561E-2,1.0698721E0,9.0330243E-1,-1.0333594E0,-3.0700925E-1,1.0714458E0,-1.13481E-1,5.677429E-1,4.893711E-1,-1.3092512E-1,1.12375356E-1,-6.1356544E-1,6.987608E-2,-7.1943216E-2,-2.1055721E-1,1.11601196E-1,6.994148E-2,1.0992576E-1,1.0557506E-1,-4.377428E-2,-1.2649733E-1,9.492233E-2,-2.1146432E-1,9.7650036E-2,1.08769834E-1,7.838983E-2,9.2579626E-2,-4.2309977E-2,-6.3071094E-2,1.0807649E-1,-8.26207E-2,5.4745646E-3],"categories":[],"categories_nodes":[],"categories_segments":[],"categories_sizes":[],"default_left":[0,0,0,0,0,0,0,0,0,0,0,0,0,0,0,0,0,0,0,0,0,0,0,0,0,0,0,0,0,0,0,0,0,0,0,0,0,0,0,0,0,0,0,0,0,0,0,0,0,0,0,0,0,0,0,0,0,0,0,0,0],"id":18,"left_children":[1,3,5,7,9,11,13,-1,-1,-1,15,17,19,21,23,25,27,29,31,33,35,37,39,-1,41,-1,-1,-1,-1,43,45,47,49,51,53,-1,55,57,-1,-1,59,-1,-1,-1,-1,-1,-1,-1,-1,-1,-1,-1,-1,-1,-1,-1,-1,-1,-1,-1,-1],"loss_changes":[6.642013E2,2.6270825E2,3.8112988E2,8.579738E1,1.4647339E1,6.686255E1,2.9004967E1,0E0,0E0,0E0,4.316101E0,1.1757715E2,3.8887207E1,9.112715E0,2.2610245E0,1.302185E0,3.7790298E0,1.4272577E2,1.7183296E2,1.872168E1,1.0854551E1,2.0090675E1,9.909945E0,0E0,2.4322E0,0E0,0E0,0E0,0E0,3.873707E2,7.657593E0,2.0809967E1,4.0181313E1,2.6435457E1,8.502686E0,0E0,2.540415E0,9.348574E0,0E0,0E0,7.520262E-1,0E0,0E0,0E0,0E0,0E0,0E0,0E0,0E0,0E0,0E0,0E0,0E0,0E0,0E0,0E0,0E0,0E0,0E0,0E0,0E0],"parents":[2147483647,0,0,1,1,2,2,3,3,4,4,5,5,6,6,10,10,11,11,12,12,13,13,14,14,15,15,16,16,17,17,18,18,19,19,20,20,21,21,22,22,24,24,29,29,30,30,31,31,32,32,33,33,34,34,36,36,37,37,40,40],"right_children":[2,4,6,8,10,12,14,-1,-1,-1,16,18,20,22,24,26,28,30,32,34,36,38,40,-1,42,-1,-1,-1,-1,44,46,48,50,52,54,-1,56,58,-1,-1,60,-1,-1,-1,-1,-1,-1,-1,-1,-1,-1,-1,-1,-1,-1,-1,-1,-1,-1,-1,-1],"split_conditions":[8E1,5.3E1,1.7E1,1.38E2,6.4E1,3.8769E-2,4.835469E0,-1.0597696E-1,1.0916579E-1,8.700572E-2,1.383502E0,8.3E1,8.402E3,4.45E2,4.2653E4,9E0,3.163E3,1.06E2,1.06E2,3.65E2,9.158E3,1.58E2,8.402E3,-1.0728873E-1,8.9178766E2,-1.08301714E-1,9.219426E-4,8.059766E-2,-8.381377E-2,6.4E1,5E-6,5.1E-5,5.355E3,4E0,4.43E2,-1.13481E-1,1.383502E0,6.7582E-2,-1.3092512E-1,1.12375356E-1,1.5E1,6.987608E-2,-7.1943216E-2,-2.1055721E-1,1.11601196E-1,6.994148E-2,1.0992576E-1,1.0557506E-1,-4.377428E-2,-1.2649733E-1,9.492233E-2,-2.1146432E-1,9.7650036E-2,1.08769834E-1,7.838983E-2,9.2579626E-2,-4.2309977E-2,-6.3071094E-2,1.0807649E-1,-8.26207E-2,5.4745646E-3],"split_indices":[1,1,2,0,12,15,9,0,0,0,15,12,1,1,0,2,0,1,1,0,1,1,1,0,4,0,0,0,0,12,5,5,1,2,1,0,15,14,0,0,10,0,0,0,0,0,0,0,0,0,0,0,0,0,0,0,0,0,0,0,0],"split_type":[0,0,0,0,0,0,0,0,0,0,0,0,0,0,0,0,0,0,0,0,0,0,0,0,0,0,0,0,0,0,0,0,0,0,0,0,0,0,0,0,0,0,0,0,0,0,0,0,0,0,0,0,0,0,0,0,0,0,0,0,0],"sum_hessian":[3.6807717E3,3.9858908E2,3.2821826E3,1.24254814E2,2.7433426E2,3.146905E3,1.3527757E2,2.1739876E1,1.0251494E2,3.2686527E0,2.710656E2,1.121952E3,2.024953E3,3.678555E1,9.849202E1,2.6746497E2,3.6006386E0,9.395333E2,1.8241873E2,2.0103975E3,1.4555618E1,2.3066427E1,1.3719124E1,9.553195E1,2.960072E0,2.6638583E2,1.0791227E0,1.9068491E0,1.6937895E0,1.6646904E2,7.730643E2,9.8529594E1,8.388913E1,9.504007E0,2.0008934E3,9.4990635E0,5.0565553E0,1.2083936E1,1.0982491E1,9.745571E0,3.9735525E0,1.1387627E0,1.8213094E0,5.4818283E1,1.1165076E2,5.863713E1,7.144272E2,8.866322E1,9.866373E0,7.543808E1,8.451049E0,3.6773937E0,5.8266134E0,1.8912174E3,1.0967604E2,3.7625558E0,1.2939992E0,4.1525846E0,7.931351E0,2.8351958E0,1.1383564E0],"tree_param":{"num_deleted":"0","num_feature":"17","num_nodes":"61","size_leaf_vector":"0"}},{"base_weights":[7.1372116E-1,-4.9211577E-1,8.599744E-1,1.0798079E-1,-8.986601E-1,9.305825E-1,-7.426446E-1,-1.0191205E0,9.896083E-1,7.325312E-1,1.0428278E0,-6.6627725E-3,-1.0275689E0,-1.0603513E-1,3.3506104E-1,1.4190807E-2,1.0422688E-1,8.7408835E-1,6.592199E-3,1.0541736E0,-5.1071143E-1,-3.8786706E-1,6.262006E-1,-1.055668E0,-1.2993018E-1,9.154652E-2,-2.8122908E-1,4.7114443E-2,1.0634038E0,8.499878E-1,-9.8709625E-1,-1.1055429E-1,1.0591629E0,-1.1024096E-1,5.980568E-1,4.1189653E-1,-1.2900567E-1,1.0507611E0,-5.4498726E-1,-1.0656299E-1,-1.9661665E-2,-6.961891E-2,5.9706833E-2,-8.723559E-2,6.8052195E-2,-1.8219574E-1,1.101607E-1,7.556182E-2,1.08844995E-1,1.1157816E-1,-2.744875E-2,-1.1992333E-1,8.836835E-2,-4.283303E-3,1.0640146E-1,-3.0983908E-2,8.9713536E-2,-6.993637E-2,1.0113775E-1,1.1159898E-1,2.2298774E-2,-7.804107E-2,1.1676669E-2],"categories":[],"categories_nodes":[],"categories_segments":[],"categories_sizes":[],"default_left":[0,0,0,0,0,0,0,0,0,0,0,0,0,0,0,0,0,0,0,0,0,0,0,0,0,0,0,0,0,0,0,0,0,0,0,0,0,0,0,0,0,0,0,0,0,0,0,0,0,0,0,0,0,0,0,0,0,0,0,0,0,0,0],"id":19,"left_children":[1,3,5,-1,7,9,11,13,15,17,19,21,23,-1,25,-1,-1,27,29,31,33,35,37,39,41,-1,43,45,47,49,51,-1,53,-1,55,57,-1,59,61,-1,-1,-1,-1,-1,-1,-1,-1,-1,-1,-1,-1,-1,-1,-1,-1,-1,-1,-1,-1,-1,-1,-1,-1],"loss_changes":[5.9514136E2,2.3448438E2,3.410503E2,0E0,6.716919E1,6.3289307E1,2.6726166E1,1.5649017E1,6.53389E-1,1.07446655E2,3.2911987E1,9.069175E0,2.1807327E0,0E0,3.424278E0,0E0,0E0,1.3694061E2,1.4468152E2,2.082251E1,9.837546E0,1.745146E1,7.601444E0,5.518341E-1,2.0334184E0,0E0,3.4697435E0,3.253255E2,4.6659546E0,2.8214203E1,3.2514755E1,0E0,9.776245E0,0E0,1.7758204E0,9.493309E0,0E0,3.2976818E-1,7.796284E-1,0E0,0E0,0E0,0E0,0E0,0E0,0E0,0E0,0E0,0E0,0E0,0E0,0E0,0E0,0E0,0E0,0E0,0E0,0E0,0E0,0E0,0E0,0E0,0E0],"parents":[2147483647,0,0,1,1,2,2,4,4,5,5,6,6,7,7,8,8,9,9,10,10,11,11,12,12,14,14,17,17,18,18,19,19,20,20,21,21,22,22,23,23,24,24,26,26,27,27,28,28,29,29,30,30,32,32,34,34,35,35,37,37,38,38],"right_children":[2,4,6,-1,8,10,12,14,16,18,20,22,24,-1,26,-1,-1,28,30,32,34,36,38,40,42,-1,44,46,48,50,52,-1,54,-1,56,58,-1,60,62,-1,-1,-1,-1,-1,-1,-1,-1,-1,-1,-1,-1,-1,-1,-1,-1,-1,-1,-1,-1,-1,-1,-1,-1],"split_conditions":[8E1,6.4E1,1.7E1,1.0798079E-1,3E0,3.8769E-2,4.835469E0,1.5858083E2,3.99806E-1,7.6E1,8.402E3,4.45E2,4.1464E4,-1.0603513E-1,2.03E2,1.4190807E-2,1.0422688E-1,1.06E2,1.23E2,1.54E2,9.158E3,1.58E2,8.402E3,7.997919E1,1.921E3,9.154652E-2,4E0,6.4E1,5E-6,1.72E2,5.355E3,-1.1055429E-1,3.65E2,-1.1024096E-1,1.72E2,6.7582E-2,-1.2900567E-1,1.123847E0,1.344E4,-1.0656299E-1,-1.9661665E-2,-6.961891E-2,5.9706833E-2,-8.723559E-2,6.8052195E-2,-1.8219574E-1,1.101607E-1,7.556182E-2,1.08844995E-1,1.1157816E-1,-2.744875E-2,-1.1992333E-1,8.836835E-2,-4.283303E-3,1.0640146E-1,-3.0983908E-2,8.9713536E-2,-6.993637E-2,1.0113775E-1,1.1159898E-1,2.2298774E-2,-7.804107E-2,1.1676669E-2],"split_indices":[1,12,2,0,11,15,9,14,15,12,1,1,0,0,3,0,0,1,1,3,1,1,1,16,2,0,2,12,5,3,1,0,0,0,12,14,0,5,12,0,0,0,0,0,0,0,0,0,0,0,0,0,0,0,0,0,0,0,0,0,0,0,0],"split_type":[0,0,0,0,0,0,0,0,0,0,0,0,0,0,0,0,0,0,0,0,0,0,0,0,0,0,0,0,0,0,0,0,0,0,0,0,0,0,0,0,0,0,0,0,0,0,0,0,0,0,0,0,0,0,0,0,0,0,0,0,0,0,0],"sum_hessian":[3.3712297E3,3.6440424E2,3.0068254E3,7.453909E1,2.8986514E2,2.8803428E3,1.26482704E2,2.7291504E2,1.6950079E1,1.044645E3,1.8356978E3,3.558563E1,9.089707E1,2.650617E2,7.853358E0,1.2074801E0,1.57425995E1,8.740101E2,1.7063492E2,1.8227078E3,1.2990026E1,2.2450018E1,1.3135611E1,8.7967354E1,2.929721E0,3.794429E0,4.0589285E0,1.6304422E2,7.109658E2,9.237555E1,7.825937E1,3.6926904E0,1.819015E3,8.473726E0,4.5163E0,1.2188623E1,1.0261395E1,9.716253E0,3.4193578E0,8.672124E1,1.2461152E0,1.6707519E0,1.2589693E0,2.5714023E0,1.4875263E0,5.854547E1,1.0449875E2,5.584667E1,6.5511914E2,7.4721306E1,1.7654242E1,7.061136E1,7.6480093E0,7.9389744E0,1.811076E3,1.1101875E0,3.4061124E0,4.2127733E0,7.97585E0,8.683786E0,1.0324668E0,2.389847E0,1.0295107E0],"tree_param":{"num_deleted":"0","num_feature":"17","num_nodes":"63","size_leaf_vector":"0"}},{"base_weights":[7.0105416E-1,-4.8491523E-1,8.4283036E-1,7.0376337E-1,-1.0205019E0,9.13884E-1,-7.9373616E-1,-1.0277026E-1,1.07056715E-1,-1.0538008E0,3.0403015E-1,7.0718396E-1,1.0328828E0,5.576684E-1,-9.108615E-1,7.634436E-3,-1.0619656E0,7.5455385E-1,-6.659574E-2,4.6431354E-1,1.0747857E0,1.044362E0,-5.269813E-1,-7.6431945E-2,8.530824E-1,1.0302053E-2,-1.0161619E0,-1.06686525E-1,-3.0594852E-3,2.188095E-2,8.549079E-2,6.6795146E-1,-1.8699954E-1,1.07889496E-1,1.4248622E-2,1.0702614E0,6.9405764E-1,-1.06932715E-1,5.356536E-1,4.491861E-3,9.570541E-2,3.509087E-1,-9.5774636E-2,-3.5991885E-2,-1.0224848E-1,2.4986938E-2,1.0837276E-1,1.0708866E-1,3.73131E-2,-5.517594E-1,8.263456E-2,-3.162199E-2,8.5286014E-2,8.342292E-2,-6.7048654E-2],"categories":[],"categories_nodes":[],"categories_segments":[],"categories_sizes":[],"default_left":[0,0,0,0,0,0,0,0,0,0,0,0,0,0,0,0,0,0,0,0,0,0,0,0,0,0,0,0,0,0,0,0,0,0,0,0,0,0,0,0,0,0,0,0,0,0,0,0,0,0,0,0,0,0,0],"id":20,"left_children":[1,3,5,7,9,11,13,-1,-1,15,17,19,21,23,25,-1,27,29,-1,31,33,35,37,-1,39,41,43,-1,-1,-1,-1,45,-1,-1,-1,47,49,-1,51,-1,-1,53,-1,-1,-1,-1,-1,-1,-1,-1,-1,-1,-1,-1,-1],"loss_changes":[5.206084E2,2.114401E2,3.2211353E2,6.677246E1,1.0402359E1,6.443384E1,1.8795578E1,0E0,0E0,2.140686E0,3.2914014E0,8.6202576E1,3.0617188E1,4.4929724E0,1.036042E1,0E0,1.0875244E0,7.243872E-2,0E0,2.8005963E2,1.3235168E0,1.4383423E1,8.025358E0,0E0,6.7218304E-1,4.2716737E0,2.935791E-2,0E0,0E0,0E0,0E0,9.363272E1,0E0,0E0,0E0,2.7612305E-1,1.0121364E2,0E0,1.6305077E0,0E0,0E0,5.2793674E0,0E0,0E0,0E0,0E0,0E0,0E0,0E0,0E0,0E0,0E0,0E0,0E0,0E0],"parents":[2147483647,0,0,1,1,2,2,3,3,4,4,5,5,6,6,9,9,10,10,11,11,12,12,13,13,14,14,16,16,17,17,19,19,20,20,21,21,22,22,24,24,25,25,26,26,31,31,35,35,36,36,38,38,41,41],"right_children":[2,4,6,8,10,12,14,-1,-1,16,18,20,22,24,26,-1,28,30,-1,32,34,36,38,-1,40,42,44,-1,-1,-1,-1,46,-1,-1,-1,48,50,-1,52,-1,-1,54,-1,-1,-1,-1,-1,-1,-1,-1,-1,-1,-1,-1,-1],"split_conditions":[8E1,5.3E1,1.7E1,1E0,2.904444E2,3.8769E-2,1.014811E0,-1.0277026E-1,1.07056715E-1,3.543E-3,1.39E2,5.355E3,8.402E3,1.43685E-1,4.74E-4,7.634436E-3,9E0,3.799392E2,-6.659574E-2,5.353E3,3.730223E1,1.23E2,9.158E3,-7.6431945E-2,3.8023888E1,1.4519314E3,1.909224E0,-1.06686525E-1,-3.0594852E-3,2.188095E-2,8.549079E-2,1.58E2,-1.8699954E-1,1.07889496E-1,1.4248622E-2,1.6162923E2,6.22768E-1,-1.06932715E-1,3.06771E-1,4.491861E-3,9.570541E-2,1.4935366E1,-9.5774636E-2,-3.5991885E-2,-1.0224848E-1,2.4986938E-2,1.0837276E-1,1.0708866E-1,3.73131E-2,-5.517594E-1,8.263456E-2,-3.162199E-2,8.5286014E-2,8.342292E-2,-6.7048654E-2],"split_indices":[1,1,2,1,14,15,4,0,0,4,13,1,1,4,8,0,2,14,0,1,4,1,1,0,14,4,4,0,0,0,0,1,0,0,0,15,14,0,4,0,0,7,0,0,0,0,0,0,0,0,0,0,0,0,0],"split_type":[0,0,0,0,0,0,0,0,0,0,0,0,0,0,0,0,0,0,0,0,0,0,0,0,0,0,0,0,0,0,0,0,0,0,0,0,0,0,0,0,0,0,0,0,0,0,0,0,0,0,0,0,0,0,0],"sum_hessian":[3.0928079E3,3.299905E2,2.7628174E3,1.0240322E2,2.2758728E2,2.6482803E3,1.1453692E2,1.7586388E1,8.481683E1,2.222054E2,5.3818884E0,9.7012445E2,1.6781559E3,8.835117E0,1.057018E2,1.5339289E0,2.2067146E2,3.8266492E0,1.5552392E0,5.855326E2,3.8459186E2,1.6662245E3,1.1931402E1,1.3237973E0,7.51132E0,1.093603E1,9.476577E1,2.1959386E2,1.0776085E0,1.1054631E0,2.7211862E0,5.3920764E2,4.632497E1,3.827476E2,1.844252E0,1.5496012E3,1.1662329E2,7.895442E0,4.0359607E0,1.019426E0,6.4918942E0,8.561268E0,2.3747628E0,1.45712E0,9.330865E1,2.696565E2,2.6955112E2,1.547677E3,1.9242114E0,1.5830147E0,1.15040276E2,1.0959214E0,2.9400392E0,5.9357414E0,2.6255262E0],"tree_param":{"num_deleted":"0","num_feature":"17","num_nodes":"55","size_leaf_vector":"0"}},{"base_weights":[6.93397E-1,-4.8039472E-1,8.3281326E-1,6.682174E-1,-9.971182E-1,8.959434E-1,-8.514643E-1,-1.0211567E-1,1.0605951E-1,-1.0398839E0,4.4547227E-1,7.2195405E-1,1.0242546E0,3.0144995E-1,-9.75369E-1,9.717748E-3,-1.0469036E0,9.4532445E-2,-6.773133E-2,5.40855E-1,1.0453367E0,1.0444791E0,-7.08104E-1,-4.0000227E-1,9.245688E-2,-1.8848854E-1,-1.012888E0,-1.0531361E0,5.6783604E-3,7.1457124E-1,-1.6454738E0,1.0545805E0,-6.97346E-2,3.0464089E-2,1.059858E0,2.5193614E-1,-2.0441496E0,-8.6993635E-2,6.841051E-2,5.776313E-2,-5.8930504E-1,-1.03052415E-1,-4.3230978E-1,3.4598298E-3,-1.0594406E-1,4.1068327E-2,1.0698874E-1,-4.7941995E-1,-1.3366799E-1,3.4136444E-2,1.06531575E-1,8.7082885E-2,-8.307149E-2,1.0616632E-1,-4.369878E-2,-9.075915E-2,1.01630405E-1,-3.7008008E-1,-9.613949E-2,-7.322612E-2,-1.3091541E-2,-7.6223925E-2,2.887163E-2],"categories":[],"categories_nodes":[],"categories_segments":[],"categories_sizes":[],"default_left":[0,0,0,0,0,0,0,0,0,0,0,0,0,0,0,0,0,0,0,0,0,0,0,0,0,0,0,0,0,0,0,0,0,0,0,0,0,0,0,0,0,0,0,0,0,0,0,0,0,0,0,0,0,0,0,0,0,0,0,0,0,0,0],"id":21,"left_children":[1,3,5,7,9,11,13,-1,-1,15,17,19,21,23,25,-1,27,-1,-1,29,31,33,35,37,-1,39,41,43,-1,45,47,49,-1,51,53,55,57,-1,-1,-1,59,-1,61,-1,-1,-1,-1,-1,-1,-1,-1,-1,-1,-1,-1,-1,-1,-1,-1,-1,-1,-1,-1],"loss_changes":[4.6633472E2,1.8044664E2,2.714021E2,6.3781223E1,1.3377045E1,5.404187E1,1.350341E1,0E0,0E0,1.7267914E0,4.41554E0,6.0629456E1,5.013794E1,4.6258807E0,2.2810898E0,0E0,1.4522858E0,0E0,0E0,2.5635822E2,6.76062E0,2.1707031E1,2.2148617E1,3.284425E0,0E0,1.8878475E0,3.7049103E-1,1.4174194E0,0E0,6.6843475E1,4.1972076E1,2.4880981E0,0E0,1.6540941E1,4.1746826E0,1.0409763E1,9.288607E0,0E0,0E0,0E0,1.5337324E-1,0E0,1.1887772E0,0E0,0E0,0E0,0E0,0E0,0E0,0E0,0E0,0E0,0E0,0E0,0E0,0E0,0E0,0E0,0E0,0E0,0E0,0E0,0E0],"parents":[2147483647,0,0,1,1,2,2,3,3,4,4,5,5,6,6,9,9,10,10,11,11,12,12,13,13,14,14,16,16,19,19,20,20,21,21,22,22,23,23,25,25,26,26,27,27,29,29,30,30,31,31,33,33,34,34,35,35,36,36,40,40,42,42],"right_children":[2,4,6,8,10,12,14,-1,-1,16,18,20,22,24,26,-1,28,-1,-1,30,32,34,36,38,-1,40,42,44,-1,46,48,50,-1,52,54,56,58,-1,-1,-1,60,-1,62,-1,-1,-1,-1,-1,-1,-1,-1,-1,-1,-1,-1,-1,-1,-1,-1,-1,-1,-1,-1],"split_conditions":[8E1,5.3E1,6.689E3,1.38E2,2.334267E2,7.503023E0,1.326954E0,-1.0211567E-1,1.0605951E-1,8.8E1,1.39E2,5.432E3,1.06E2,3.8023888E1,3.38E-4,9.717748E-3,3E0,9.4532445E-2,-6.773133E-2,5.353E3,1.326954E0,4.7321E-2,7.1E-4,4.45E2,9.245688E-2,1.4935366E1,4.8478E4,1.476E3,5.6783604E-3,4.45E2,7E1,8.68E3,-6.97346E-2,7E-6,2.571972E2,4.142E-3,1.078E3,-8.6993635E-2,6.841051E-2,5.776313E-2,3.926314E0,-1.03052415E-1,7.1478E4,3.4598298E-3,-1.0594406E-1,4.1068327E-2,1.0698874E-1,-4.7941995E-1,-1.3366799E-1,3.4136444E-2,1.06531575E-1,8.7082885E-2,-8.307149E-2,1.0616632E-1,-4.369878E-2,-9.075915E-2,1.01630405E-1,-3.7008008E-1,-9.613949E-2,-7.322612E-2,-1.3091541E-2,-7.6223925E-2,2.887163E-2],"split_indices":[1,1,3,0,14,4,7,0,0,3,13,1,1,14,8,0,11,0,0,1,7,14,8,1,0,7,0,0,0,1,3,0,0,8,4,16,3,0,0,0,5,0,13,0,0,0,0,0,0,0,0,0,0,0,0,0,0,0,0,0,0,0,0],"split_type":[0,0,0,0,0,0,0,0,0,0,0,0,0,0,0,0,0,0,0,0,0,0,0,0,0,0,0,0,0,0,0,0,0,0,0,0,0,0,0,0,0,0,0,0,0,0,0,0,0,0,0,0,0,0,0,0,0,0,0,0,0,0,0],"sum_hessian":[2.846216E3,3.0190796E2,2.5443079E3,9.3585594E1,2.0832237E2,2.4528386E3,9.146931E1,1.7337378E1,7.624822E1,2.0259557E2,5.726799E0,1.0439175E3,1.4089213E3,8.737285E0,8.273202E1,1.1642703E0,2.014313E2,4.0720296E0,1.6547698E0,6.708847E2,3.7303278E2,1.3930549E3,1.5866249E1,4.278731E0,4.458554E0,4.039336E0,7.869269E1,2.0034575E2,1.0855448E0,6.2212634E2,4.8758324E1,3.714573E2,1.5754608E0,2.085634E1,1.3721986E3,9.704403E0,6.1618457E0,3.1226804E0,1.1560508E0,1.235901E0,2.803435E0,7.562057E1,3.0721157E0,1.1286523E0,1.992171E2,3.3649295E2,2.8563342E2,3.0573554E0,4.5700966E1,5.9946446E0,3.6546268E2,1.0550062E1,1.0306278E1,1.370836E3,1.3625497E0,3.7811358E0,5.923267E0,1.4797813E0,4.6820645E0,1.6815522E0,1.1218829E0,2.0684628E0,1.0036529E0],"tree_param":{"num_deleted":"0","num_feature":"17","num_nodes":"63","size_leaf_vector":"0"}},{"base_weights":[6.7668027E-1,-4.7787565E-1,8.114926E-1,6.611372E-1,-9.942159E-1,8.812712E-1,-7.136023E-1,-1.0094746E-1,1.0519838E-1,5.0579315E-1,-1.0272082E0,6.5735173E-1,1.0155892E0,-1.12818785E-1,-9.982864E-1,-1.4688137E-2,8.05609E-2,-1.0500331E-1,1.5100403E-1,2.337512E-1,8.9362377E-1,1.0281487E0,-5.2155447E-1,-4.3588978E-1,5.1380944E-1,-1.0209873E0,-2.3974288E-1,7.903582E-2,-6.148116E-2,6.1270785E-1,-8.5565627E-1,9.4978964E-1,-6.564656E-1,-1.0273971E-1,1.0336887E0,-1.0410886E-1,4.088758E-1,3.1815317E-1,-1.339684E-1,1.0538747E-1,-6.7896324E-1,-1.0480868E-1,-5.2206916E-1,-6.0522582E-2,2.6854634E-2,8.160717E-2,-8.570814E-2,1.1058177E-1,-2.2739366E-1,1.788191E-2,1.0663527E-1,-1.14321165E-1,8.927833E-2,-2.8743222E-2,1.0408395E-1,8.345816E-2,-5.627635E-2,-7.842017E-2,1.02445446E-1,-7.633682E-2,-2.0882001E-2,-8.235936E-2,3.9882343E-2],"categories":[],"categories_nodes":[],"categories_segments":[],"categories_sizes":[],"default_left":[0,0,0,0,0,0,0,0,0,0,0,0,0,0,0,0,0,0,0,0,0,0,0,0,0,0,0,0,0,0,0,0,0,0,0,0,0,0,0,0,0,0,0,0,0,0,0,0,0,0,0,0,0,0,0,0,0,0,0,0,0,0,0],"id":22,"left_children":[1,3,5,7,9,11,13,-1,-1,15,17,19,21,23,25,-1,-1,-1,27,29,31,33,35,37,39,41,43,-1,-1,45,47,49,51,-1,53,-1,55,57,-1,-1,59,-1,61,-1,-1,-1,-1,-1,-1,-1,-1,-1,-1,-1,-1,-1,-1,-1,-1,-1,-1,-1,-1],"loss_changes":[4.0844666E2,1.6223875E2,2.5049268E2,5.7411064E1,9.894913E0,6.6873535E1,1.7551476E1,0E0,0E0,1.0472637E0,5.15242E0,8.434503E1,2.7599365E1,7.174361E0,9.59671E-1,0E0,0E0,0E0,2.6419096E0,1.2596449E2,4.7808746E1,1.6900024E1,6.2381916E0,1.6232935E1,8.534661E0,3.6689758E-1,7.8288054E-1,0E0,0E0,6.8255356E1,2.2182642E2,4.6848297E1,1.5757413E1,0E0,1.3407593E1,0E0,2.5487874E0,1.1277537E1,0E0,0E0,1.4848232E-2,0E0,1.8488544E0,0E0,0E0,0E0,0E0,0E0,0E0,0E0,0E0,0E0,0E0,0E0,0E0,0E0,0E0,0E0,0E0,0E0,0E0,0E0,0E0],"parents":[2147483647,0,0,1,1,2,2,3,3,4,4,5,5,6,6,9,9,10,10,11,11,12,12,13,13,14,14,18,18,19,19,20,20,21,21,22,22,23,23,24,24,25,25,26,26,29,29,30,30,31,31,32,32,34,34,36,36,37,37,40,40,42,42],"right_children":[2,4,6,8,10,12,14,-1,-1,16,18,20,22,24,26,-1,-1,-1,28,30,32,34,36,38,40,42,44,-1,-1,46,48,50,52,-1,54,-1,56,58,-1,-1,60,-1,62,-1,-1,-1,-1,-1,-1,-1,-1,-1,-1,-1,-1,-1,-1,-1,-1,-1,-1,-1,-1],"split_conditions":[8E1,5.3E1,9E0,1.38E2,1.54E2,3.8769E-2,2.496742E0,-1.0094746E-1,1.0519838E-1,8E-6,1.383502E0,3.4045E4,8.402E3,4.45E2,4.9431E4,-1.4688137E-2,8.05609E-2,-1.0500331E-1,3.163E3,2.0618557E3,6.868E-3,1.54E2,9.158E3,1.58E2,8.402E3,8.088E3,6.258E-3,7.903582E-2,-6.148116E-2,1.72E2,3.3842E4,5E-6,4.45E2,-1.0273971E-1,3.65E2,-1.0410886E-1,1.383502E0,6.7582E-2,-1.339684E-1,1.0538747E-1,1.9E1,-1.0480868E-1,3.538E3,-6.0522582E-2,2.6854634E-2,8.160717E-2,-8.570814E-2,1.1058177E-1,-2.2739366E-1,1.788191E-2,1.0663527E-1,-1.14321165E-1,8.927833E-2,-2.8743222E-2,1.0408395E-1,8.345816E-2,-5.627635E-2,-7.842017E-2,1.02445446E-1,-7.633682E-2,-2.0882001E-2,-8.235936E-2,3.9882343E-2],"split_indices":[1,1,10,0,3,15,5,0,0,4,15,0,1,1,0,0,0,0,0,14,8,3,1,1,1,1,8,0,0,3,0,5,1,0,0,0,15,14,0,0,10,0,13,0,0,0,0,0,0,0,0,0,0,0,0,0,0,0,0,0,0,0,0],"split_type":[0,0,0,0,0,0,0,0,0,0,0,0,0,0,0,0,0,0,0,0,0,0,0,0,0,0,0,0,0,0,0,0,0,0,0,0,0,0,0,0,0,0,0,0,0,0,0,0,0,0,0,0,0,0,0,0,0,0,0,0,0,0,0],"sum_hessian":[2.6206697E3,2.737431E2,2.3469265E3,8.529889E1,1.8844421E2,2.244648E3,1.02278564E2,1.5872331E1,6.942656E1,3.7471616E0,1.8469705E2,8.438209E2,1.400827E3,3.3332203E1,6.894636E1,1.3400587E0,2.407103E0,1.8129373E2,3.403324E0,3.0284836E2,5.4097253E2,1.3898026E3,1.1024481E1,2.2194014E1,1.1138189E1,6.660704E1,2.3393223E0,1.8373411E0,1.5659828E0,2.2501366E2,7.783472E1,5.224301E2,1.8542439E1,3.2398372E0,1.3865627E3,6.998001E0,4.0264797E0,1.2452647E1,9.741366E0,7.7469597E0,3.3912296E0,6.2131557E1,4.4754834E0,1.2498863E0,1.0894362E0,1.9805502E2,2.6958635E1,3.2755013E1,4.50797E1,6.894551E1,4.534846E2,1.4308921E1,4.233518E0,7.253583E0,1.3793092E3,2.8978837E0,1.128596E0,4.819833E0,7.6328144E0,2.3463037E0,1.0449259E0,3.451145E0,1.0243382E0],"tree_param":{"num_deleted":"0","num_feature":"17","num_nodes":"63","size_leaf_vector":"0"}},{"base_weights":[6.696877E-1,-4.6774915E-1,8.03244E-1,6.717642E-1,-9.906773E-1,8.730862E-1,-6.484917E-1,-9.951151E-2,1.0446831E-1,5.595373E-1,-1.0206202E0,6.615097E-1,1.0203923E0,6.533344E-2,-1.0005136E0,1.2826413E-3,7.5008534E-2,-1.0429285E0,9.993457E-2,4.5699075E-1,1.0402951E0,-9.4616555E-2,1.0266382E0,3.3206806E-1,-8.753648E-1,-1.0139909E-1,-1.39229195E-2,-1.0467143E-1,-3.3206135E-2,5.555683E-2,-5.985582E-2,6.4939135E-1,-1.5269533E0,1.0541645E0,-7.249417E-2,1.0332673E0,-3.9954296E-1,-2.2267495E-1,1.0839707E-1,-9.519881E-2,-1.8939046E-2,3.139543E-2,1.01692595E-1,-3.3878097E-1,-1.2963237E-1,1.0572032E-1,2.7723745E-2,1.04239106E-1,3.967866E-2,5.2629173E-2,-1.099126E-1,4.6065267E-2,-1.14130616E-1],"categories":[],"categories_nodes":[],"categories_segments":[],"categories_sizes":[],"default_left":[0,0,0,0,0,0,0,0,0,0,0,0,0,0,0,0,0,0,0,0,0,0,0,0,0,0,0,0,0,0,0,0,0,0,0,0,0,0,0,0,0,0,0,0,0,0,0,0,0,0,0,0,0],"id":23,"left_children":[1,3,5,7,9,11,13,-1,-1,15,17,19,21,23,25,-1,-1,27,29,31,33,-1,35,37,39,-1,-1,-1,-1,-1,-1,41,43,45,-1,47,49,51,-1,-1,-1,-1,-1,-1,-1,-1,-1,-1,-1,-1,-1,-1,-1],"loss_changes":[3.6639062E2,1.519075E2,2.192268E2,5.103782E1,8.665344E0,6.3466187E1,2.5083828E1,0E0,0E0,4.0189445E-1,4.389511E0,6.5184875E1,1.5851074E1,8.777156E0,6.335373E-1,0E0,0E0,1.0501099E-1,1.687918E0,2.1176456E2,8.020721E0,0E0,1.1834473E1,1.1534802E1,2.2687817E-1,0E0,0E0,0E0,0E0,0E0,0E0,6.1824158E1,1.6686462E1,4.0213013E-1,0E0,6.571045E0,4.6658044E0,1.0826665E1,0E0,0E0,0E0,0E0,0E0,0E0,0E0,0E0,0E0,0E0,0E0,0E0,0E0,0E0,0E0],"parents":[2147483647,0,0,1,1,2,2,3,3,4,4,5,5,6,6,9,9,10,10,11,11,12,12,13,13,14,14,17,17,18,18,19,19,20,20,22,22,23,23,24,24,31,31,32,32,33,33,35,35,36,36,37,37],"right_children":[2,4,6,8,10,12,14,-1,-1,16,18,20,22,24,26,-1,-1,28,30,32,34,-1,36,38,40,-1,-1,-1,-1,-1,-1,42,44,46,-1,48,50,52,-1,-1,-1,-1,-1,-1,-1,-1,-1,-1,-1,-1,-1,-1,-1],"split_conditions":[8E1,5.3E1,1.32E3,1E0,1.54E2,3E2,2.496742E0,-9.951151E-2,1.0446831E-1,2.904444E2,1.383502E0,5.432E3,8.537E-3,8.402E3,5.5184816E7,1.2826413E-3,7.5008534E-2,6E0,3.08E2,5.353E3,1.383502E0,-9.4616555E-2,4.058E3,4.45E2,1.809723E0,-1.0139909E-1,-1.39229195E-2,-1.0467143E-1,-3.3206135E-2,5.555683E-2,-5.985582E-2,1.58E2,7E1,3.730223E1,-7.249417E-2,1.6162923E2,1.014811E0,1.58E2,1.0839707E-1,-9.519881E-2,-1.8939046E-2,3.139543E-2,1.01692595E-1,-3.3878097E-1,-1.2963237E-1,1.0572032E-1,2.7723745E-2,1.04239106E-1,3.967866E-2,5.2629173E-2,-1.099126E-1,4.6065267E-2,-1.14130616E-1],"split_indices":[1,1,12,1,3,12,5,0,0,14,15,1,15,1,12,0,0,10,3,1,15,0,3,1,6,0,0,0,0,0,0,1,3,4,0,15,4,1,0,0,0,0,0,0,0,0,0,0,0,0,0,0,0],"split_type":[0,0,0,0,0,0,0,0,0,0,0,0,0,0,0,0,0,0,0,0,0,0,0,0,0,0,0,0,0,0,0,0,0,0,0,0,0,0,0,0,0,0,0,0,0,0,0,0,0,0,0,0,0],"sum_hessian":[2.408389E3,2.5281131E2,2.1555776E3,7.943336E1,1.7337794E2,2.0570144E3,9.856321E1,1.42170925E1,6.521626E1,2.9502442E0,1.704277E2,8.465711E2,1.2104432E3,3.2821873E1,6.574133E1,1.0383565E0,1.9118875E0,1.6716895E2,3.2587547E0,5.5117804E2,2.9539304E2,3.355744E0,1.2070875E3,2.6075245E1,6.746628E0,6.45539E1,1.1874346E0,1.6581343E2,1.3555225E0,2.0960796E0,1.162675E0,5.0306418E2,4.81139E1,2.934899E2,1.9031146E0,1.201777E3,5.3105674E0,1.5409896E1,1.066535E1,5.7199225E0,1.0267053E0,2.6398648E2,2.390777E2,3.796014E0,4.4317883E1,2.9198715E2,1.5027441E0,1.1841646E3,1.7612404E1,2.3922923E0,2.918275E0,9.122575E0,6.28732E0],"tree_param":{"num_deleted":"0","num_feature":"17","num_nodes":"53","size_leaf_vector":"0"}},{"base_weights":[6.521015E-1,-4.7691205E-1,7.833423E-1,1.03444576E-1,-8.57563E-1,8.538875E-1,-6.615399E-1,-9.8162585E-1,7.3544365E-1,6.3899374E-1,1.0100812E0,-8.7644255E-1,3.107299E-1,-1.0194973E0,2.672372E-1,9.607784E-2,-2.2292577E-1,4.3972093E-1,1.0322485E0,1.0402466E0,4.202281E-1,7.1249515E-1,-9.770829E-1,1.0242485E-1,-1.2843479E-1,-1.0302738E-1,-4.4701627E-1,6.8870294E-1,-6.2489774E-2,4.9860787E-2,-7.152184E-2,6.1851394E-1,-1.3948406E0,1.040183E0,-4.0215634E-2,-4.1187373E-1,1.0434659E0,-1.6202353E0,1.0350374E-1,1.7767306E-2,8.050694E-2,-9.9110804E-2,-6.816806E-3,-1.0760386E-1,5.638346E-1,3.507263E-2,-7.863443E-2,8.053332E-2,1.7097479E-2,2.8500322E-2,1.010466E-1,-1.5158233E-1,7.734148E-2,1.0476754E-1,9.394591E-3,-8.620133E-2,2.3971323E-2,1.0461213E-1,-3.2072556E-3,-2.0215061E-1,6.661426E-2,9.943044E-2,-6.634859E-2],"categories":[],"categories_nodes":[],"categories_segments":[],"categories_sizes":[],"default_left":[0,0,0,0,0,0,0,0,0,0,0,0,0,0,0,0,0,0,0,0,0,0,0,0,0,0,0,0,0,0,0,0,0,0,0,0,0,0,0,0,0,0,0,0,0,0,0,0,0,0,0,0,0,0,0,0,0,0,0,0,0,0,0],"id":24,"left_children":[1,3,5,-1,7,9,11,13,15,17,19,21,23,25,27,-1,29,31,33,35,37,39,41,-1,43,-1,45,47,-1,-1,-1,49,51,53,-1,55,57,59,-1,-1,-1,-1,-1,-1,61,-1,-1,-1,-1,-1,-1,-1,-1,-1,-1,-1,-1,-1,-1,-1,-1,-1,-1],"loss_changes":[3.308197E2,1.3485428E2,2.0424841E2,0E0,3.7592712E1,6.3319214E1,1.9826504E1,8.478851E0,3.2486105E0,6.2617615E1,1.9168213E1,1.2994423E1,5.67138E0,5.7966614E-1,2.6484582E0,0E0,1.5950485E0,1.7664435E2,3.490509E0,5.3270264E0,7.103217E1,1.1240077E-1,8.597946E-1,0E0,8.368566E0,0E0,1.5972652E0,1.3295007E-1,0E0,0E0,0E0,6.363562E1,1.3736961E1,1.8067017E0,0E0,1.0966089E0,3.0196533E0,1.3448513E1,0E0,0E0,0E0,0E0,0E0,0E0,4.6186543E0,0E0,0E0,0E0,0E0,0E0,0E0,0E0,0E0,0E0,0E0,0E0,0E0,0E0,0E0,0E0,0E0,0E0,0E0],"parents":[2147483647,0,0,1,1,2,2,4,4,5,5,6,6,7,7,8,8,9,9,10,10,11,11,12,12,13,13,14,14,16,16,17,17,18,18,19,19,20,20,21,21,22,22,24,24,26,26,27,27,31,31,32,32,33,33,35,35,36,36,37,37,44,44],"right_children":[2,4,6,-1,8,10,12,14,16,18,20,22,24,26,28,-1,30,32,34,36,38,40,42,-1,44,-1,46,48,-1,-1,-1,50,52,54,-1,56,58,60,-1,-1,-1,-1,-1,-1,62,-1,-1,-1,-1,-1,-1,-1,-1,-1,-1,-1,-1,-1,-1,-1,-1,-1,-1],"split_conditions":[8E1,6.4E1,1.32E3,1.03444576E-1,1.0253E-2,3.08E2,4.1464E4,1.5858083E2,5.3E1,5.432E3,1.23E2,3.06771E-1,1.58E2,2.571972E2,8.6E1,9.607784E-2,3.4401E4,5.353E3,4E0,1.0684E-1,4.45E2,3.4964E4,7.997919E1,1.0242485E-1,4.45E2,-1.0302738E-1,2.64E2,3.816E-3,-6.2489774E-2,4.9860787E-2,-7.152184E-2,1.58E2,1E0,9.647E-3,-4.0215634E-2,4.62E2,2.571972E2,1.597851E0,1.0350374E-1,1.7767306E-2,8.050694E-2,-9.9110804E-2,-6.816806E-3,-1.0760386E-1,8.402E3,3.507263E-2,-7.863443E-2,8.053332E-2,1.7097479E-2,2.8500322E-2,1.010466E-1,-1.5158233E-1,7.734148E-2,1.0476754E-1,9.394591E-3,-8.620133E-2,2.3971323E-2,1.0461213E-1,-3.2072556E-3,-2.0215061E-1,6.661426E-2,9.943044E-2,-6.634859E-2],"split_indices":[1,12,12,0,16,12,0,14,1,1,1,4,1,4,13,0,0,1,2,4,1,0,16,0,1,0,12,4,0,0,0,1,11,8,0,12,4,5,0,0,0,0,0,0,1,0,0,0,0,0,0,0,0,0,0,0,0,0,0,0,0,0,0],"split_type":[0,0,0,0,0,0,0,0,0,0,0,0,0,0,0,0,0,0,0,0,0,0,0,0,0,0,0,0,0,0,0,0,0,0,0,0,0,0,0,0,0,0,0,0,0,0,0,0,0,0,0,0,0,0,0,0,0,0,0,0,0,0,0],"sum_hessian":[2.2291428E3,2.3186496E2,1.9972778E3,4.6303078E1,1.8556189E2,1.9046919E3,9.2586E1,1.725106E2,1.3051277E1,8.03843E2,1.1008489E3,7.5906746E1,1.667925E1,1.676115E2,4.8991065E0,1.0564748E1,2.486529E0,5.3490857E2,2.6893445E2,1.0465636E3,5.4285282E1,4.15928E0,7.174747E1,5.8471E0,1.0832151E1,1.6372975E2,3.8817558E0,3.4821053E0,1.4170011E0,1.0032612E0,1.4832679E0,4.880108E2,4.6897778E1,2.6772833E2,1.206116E0,2.034291E0,1.0445293E3,1.2190714E1,4.2094566E1,1.0444591E0,3.114821E0,7.056812E1,1.1793438E0,4.3387485E0,6.4934025E0,1.148381E0,2.7333748E0,2.3885224E0,1.0935831E0,2.6459494E2,2.2341585E2,4.4704304E1,2.1934743E0,2.6551874E2,2.2096145E0,1.0121306E0,1.0221604E0,1.0419841E3,2.5451126E0,1.0469171E1,1.7215436E0,4.9478526E0,1.5455499E0],"tree_param":{"num_deleted":"0","num_feature":"17","num_nodes":"63","size_leaf_vector":"0"}},{"base_weights":[6.444096E-1,-4.6782395E-1,7.7231663E-1,1.02703646E-1,-8.531441E-1,8.3957523E-1,-6.481711E-1,-9.587912E-1,7.9642797E-1,6.017821E-1,9.9426365E-1,-3.8448066E-2,-9.847251E-1,-9.868468E-1,2.6133367E-1,9.559842E-2,-3.638149E-2,6.8986887E-1,-6.244412E-1,1.0406107E0,4.9231914E-1,-3.294079E-1,5.9523046E-1,-1.0165942E-1,1.9534789E-2,-3.5466877E-1,-1.0103388E0,7.460698E-2,-5.2770942E-2,3.2425123E-1,9.1122454E-1,-9.487054E-1,8.034771E-1,1.0415917E-1,2.9803846E-2,-1.4734076E0,6.7896056E-1,2.5514564E-1,-1.2144234E-1,9.110521E-1,-6.0874622E-2,-8.153602E-2,7.104768E-2,-6.848726E-2,-1.03394285E-1,-5.77055E-2,8.746957E-2,1.1346116E-2,1.04852915E-1,-1.01178266E-1,6.744975E-2,3.5764523E-2,9.5087096E-2,-3.396839E-1,-3.8943317E-2,-1.984799E-1,8.437787E-2,-5.1290225E-2,9.318892E-2,1.0305979E-1,8.153674E-3],"categories":[],"categories_nodes":[],"categories_segments":[],"categories_sizes":[],"default_left":[0,0,0,0,0,0,0,0,0,0,0,0,0,0,0,0,0,0,0,0,0,0,0,0,0,0,0,0,0,0,0,0,0,0,0,0,0,0,0,0,0,0,0,0,0,0,0,0,0,0,0,0,0,0,0,0,0,0,0,0,0],"id":25,"left_children":[1,3,5,-1,7,9,11,13,15,17,19,21,23,25,27,-1,-1,29,31,33,35,37,39,-1,-1,41,43,-1,-1,45,47,49,51,-1,-1,53,55,57,-1,59,-1,-1,-1,-1,-1,-1,-1,-1,-1,-1,-1,-1,-1,-1,-1,-1,-1,-1,-1,-1,-1],"loss_changes":[2.9247577E2,1.23220474E2,1.7652344E2,0E0,3.0288864E1,6.410852E1,1.7165604E1,5.7238464E0,2.3367157E0,7.5592285E1,2.4246094E1,5.8854613E0,2.2285728E0,1.9628448E0,2.0688474E0,0E0,0E0,5.228476E1,2.2599163E1,3.988037E-1,3.4702423E1,1.1583354E1,4.382258E0,0E0,0E0,4.083341E0,4.4543457E-1,0E0,0E0,1.22827065E2,4.414798E1,4.6645203E0,2.6903915E-1,0E0,0E0,1.5942656E1,3.8807816E1,7.728636E0,0E0,7.464843E-1,0E0,0E0,0E0,0E0,0E0,0E0,0E0,0E0,0E0,0E0,0E0,0E0,0E0,0E0,0E0,0E0,0E0,0E0,0E0,0E0,0E0],"parents":[2147483647,0,0,1,1,2,2,4,4,5,5,6,6,7,7,8,8,9,9,10,10,11,11,12,12,13,13,14,14,17,17,18,18,19,19,20,20,21,21,22,22,25,25,26,26,29,29,30,30,31,31,32,32,35,35,36,36,37,37,39,39],"right_children":[2,4,6,-1,8,10,12,14,16,18,20,22,24,26,28,-1,-1,30,32,34,36,38,40,-1,-1,42,44,-1,-1,46,48,50,52,-1,-1,54,56,58,-1,60,-1,-1,-1,-1,-1,-1,-1,-1,-1,-1,-1,-1,-1,-1,-1,-1,-1,-1,-1,-1,-1],"split_conditions":[8E1,6.4E1,9E0,1.02703646E-1,3E0,3.8769E-2,4.967058E0,5.7041813E1,5.2256E4,1.72E2,1.23E2,4.45E2,5.5184816E7,1.54E2,1.32E2,9.559842E-2,-3.638149E-2,3.4045E4,4.6E-5,1.6162923E2,5.87866E-1,1.58E2,1.382404E0,-1.0165942E-1,1.9534789E-2,2E0,3.163E3,7.460698E-2,-5.2770942E-2,6.4E1,5E-6,3.8292E4,9E0,1.0415917E-1,2.9803846E-2,4.45E2,1.124E3,3.4045E4,-1.2144234E-1,8.402E3,-6.0874622E-2,-8.153602E-2,7.104768E-2,-6.848726E-2,-1.03394285E-1,-5.77055E-2,8.746957E-2,1.1346116E-2,1.04852915E-1,-1.01178266E-1,6.744975E-2,3.5764523E-2,9.5087096E-2,-3.396839E-1,-3.8943317E-2,-1.984799E-1,8.437787E-2,-5.1290225E-2,9.318892E-2,1.0305979E-1,8.153674E-3],"split_indices":[1,12,10,0,11,15,9,15,0,3,1,1,12,3,12,0,0,0,6,15,15,1,5,0,0,2,0,0,0,12,5,1,2,0,0,1,0,0,0,1,0,0,0,0,0,0,0,0,0,0,0,0,0,0,0,0,0,0,0,0,0],"split_type":[0,0,0,0,0,0,0,0,0,0,0,0,0,0,0,0,0,0,0,0,0,0,0,0,0,0,0,0,0,0,0,0,0,0,0,0,0,0,0,0,0,0,0,0,0,0,0,0,0,0,0,0,0,0,0,0,0,0,0,0,0],"sum_hessian":[2.0523474E3,2.1140329E2,1.840944E3,4.2983234E1,1.6842006E2,1.7581084E3,8.2835594E1,1.5867638E2,9.743689E0,6.948491E2,1.0632593E3,2.9857698E1,5.2977898E1,1.5529666E2,3.3797054E0,8.720497E0,1.0231916E0,6.486875E2,4.616162E1,9.7239966E2,9.085971E1,2.079132E1,9.066377E0,5.1719692E1,1.2582064E0,6.1408663E0,1.4915579E2,2.127297E0,1.2524086E0,2.4555844E2,4.0312903E2,3.7892307E1,8.269314E0,9.7071454E2,1.6850713E0,7.281011E0,8.35787E1,1.2949723E1,7.841598E0,7.375078E0,1.6912991E0,4.4504766E0,1.6903894E0,1.2115509E1,1.3704028E2,9.308738E1,1.5247105E2,5.9463314E1,3.436657E2,3.6837486E1,1.0548205E0,2.9059508E0,5.363363E0,1.8552753E0,5.425736E0,4.226614E0,7.935209E1,6.1790805E0,6.7706428E0,6.234222E0,